108 64
32 -0.085648455 -0.13981785 0.5235898 0.24784203 0.12045895 0.18532762 -0.077666245 -0.2364824 -0.40109062 -0.07314831 -0.3024049 -0.027945565 -0.046345714 -0.407341 -0.08746373 -0.12861043 -0.1775188 -0.20447491 0.21831183 0.24782355 0.073222704 -0.112589225 -0.09183137 0.093418546 0.11890205 0.3552745 0.08820723 -0.582139 -0.2636868 -0.049870677 -0.09684833 -0.0795598 0.35792887 -0.086060554 0.14064917 -0.2699258 -0.21278964 0.1531101 0.27219865 -0.14531744 -0.0705234 -0.17774098 0.0893177 0.28959477 -0.013349579 0.056326732 0.262817 -0.17231956 0.19125615 0.40457302 -0.59258705 -0.4106752 0.10016122 -0.60016537 0.16276969 0.114894256 0.24752785 -0.21445385 -0.05259528 -0.437325 -0.070715755 0.19694012 0.120401345 0.32337955
54 -0.52199167 -0.14578536 0.0395635 -0.31902117 0.5716141 0.559412 0.078279816 0.14903784 0.24813965 0.41983765 -0.18295355 -0.0146803325 0.16216467 -0.12932576 0.19293277 -0.1419583 0.15592714 -0.027697183 -0.36233053 -0.2673378 0.2120521 -0.25162765 0.12892497 -0.10167529 0.10640916 0.26602462 -0.53501016 -0.3223802 0.15792295 0.22194083 0.048036966 -0.22822498 0.18213382 -0.60043585 0.16108346 -0.63926613 0.022107422 0.2966184 0.24939485 0.42411909 -0.010437877 -0.29997954 -0.64387023 -0.4227779 0.10881312 -0.5124431 -0.16185537 -0.058980044 0.2556354 -0.053686127 0.46796122 -0.122515105 -0.26153746 -0.39524186 0.39064074 -0.27645648 0.5997788 -0.14446503 -0.27978653 0.107661724 0.024549166 0.1578095 0.20603852 0.47430757
55 -0.3375977 -0.23787408 0.07516823 -0.27250814 0.37020904 0.59269506 0.024587568 0.22231016 0.22271433 0.15474159 -0.17530267 -0.047210198 0.32128954 -0.22845124 -0.041360635 0.057101086 0.27279344 0.26420507 -0.51231086 -0.2356467 -0.13351521 -0.20676264 0.1920413 0.042053193 0.013945279 0.15131032 -0.2829513 -0.028255625 0.11431185 0.007731137 -0.05655569 -0.2535982 0.24115744 -0.44394806 -0.032888878 -0.5293573 -0.0033997083 0.2151375 0.22596383 -0.0077327937 -0.10350521 -0.09764158 -0.37822303 -0.24721481 0.13905591 -0.47858518 -0.027680472 -0.06752793 0.10670813 -0.04299206 0.12613711 -0.14435633 -0.15968664 -0.21453027 0.38383827 -0.3742022 0.4164323 -0.13466492 -0.13276602 0.07704088 -0.070828885 0.14655615 0.18711433 0.58612865
31 0.14243318 -0.0190211 0.36772826 0.32391128 0.1799152 0.12943687 -0.013163281 -0.43188164 -0.4896619 -0.12964311 -0.38467395 -0.18874131 0.06226492 -0.30282325 -0.12353442 -0.22849607 -0.2392799 -0.124012984 0.23002152 -0.0022891317 0.04140795 -0.22076268 -0.116409965 -0.1373986 0.08784457 0.43803346 0.08243923 -0.78493977 -0.21581063 -0.10886598 -0.563569 -0.20392184 0.27155492 0.010695245 0.11348525 -0.18421449 0.036563497 0.19255957 0.43828365 -0.23556767 0.05473594 -0.39607033 0.14417902 0.16910052 0.046825793 0.25705433 0.4225286 0.08349659 0.094458 0.67917424 -0.6169882 -0.5476538 -0.1354224 -0.7666398 0.19505301 0.041443143 0.28974226 -0.39712828 -0.14587182 -0.40144306 0.05961524 0.2092829 -0.03727223 0.47330672
64 0.18889491 -0.0023496838 0.025093025 -0.23405209 0.10655338 0.34309673 -0.022974158 0.26166543 -0.27446765 0.106126055 -0.28797162 -0.0942636 0.2727599 0.07105932 0.11955172 0.084232934 -0.04538775 -0.052834116 0.0234381 0.31650844 0.29933912 0.005317924 -0.45859826 -0.0933784 0.48686922 -0.17719907 -0.20394723 -0.19984275 0.33861202 -0.3811287 0.40847307 0.041354366 0.08591781 0.09722685 -0.02224951 -0.3656588 0.1396555 -0.15817997 0.3359542 0.31428957 -0.010752724 -0.2529018 0.09146998 -0.08182771 -0.057665672 -0.27372754 -0.161742 0.17291753 0.18002498 0.09146373 -0.12842247 -0.17710006 0.04888399 -0.23926269 -0.2097917 0.12730995 0.1585835 -0.30330253 -0.36807263 0.1122509 0.17391527 0.5269412 0.20263124 0.37247428
70 -0.19653578 0.4063072 -0.019984184 -0.6369059 0.0693966 0.25923604 0.3860188 -0.06621222 -0.012951792 0.21117951 -0.096911 -0.19343813 -0.26211858 0.51938397 -0.20122422 -0.064470366 0.35447943 0.14693917 -0.060404617 0.4062672 -0.40552214 0.011774558 -0.3701527 0.23576288 0.024866158 -0.15065773 -0.066174746 -0.18456265 0.37137768 -0.24093588 -0.06487944 -0.40143013 0.029159268 0.18684955 0.5048305 -0.3438786 0.17895117 0.06988439 0.30485275 0.2950773 -0.03260686 0.030598486 0.44862983 0.6259459 -0.21934205 -0.19344124 0.2020429 -0.35057667 0.14023821 0.18116672 0.19650236 -0.75186133 -0.2877171 0.070579894 0.22969572 0.27262056 0.22692691 0.095375605 -0.17905036 0.48447576 -0.09465933 0.26436788 -0.101473905 0.34555247
39 0.13427387 -0.18437149 0.010208286 0.0011367905 -0.30695152 0.427228 0.30922392 -0.0046124696 -0.2310123 -0.34049812 -0.23812374 -0.21962038 -0.051652715 0.46915063 -0.15395363 0.069909416 0.30035996 -0.0052687065 -0.41358808 -0.098515294 -0.16966258 -0.044121224 0.16386274 -0.24718244 -0.2817637 0.49107936 -0.17701077 -0.38778818 -0.20514347 -0.26847187 -0.38228363 -0.04117295 -0.12033214 0.055467077 0.07904082 -0.10446762 -0.07089478 0.102650285 -0.21027131 -0.14239624 0.07964355 -0.13416262 -0.353713 0.21039073 0.118495956 -0.047799625 0.30790624 0.10964735 -0.05787399 0.34600914 0.15815333 -0.32326734 0.3582011 -0.19066806 0.3261269 -0.2616265 0.21683803 -0.5118696 -0.17686671 0.18688352 -0.0037517545 0.1736754 -0.106355965 0.24892004
34 -0.12782733 -0.15179123 0.2868588 0.4460814 0.32883874 0.3087792 -0.06349978 -0.16969137 -0.39535385 -0.005851876 -0.12057951 0.055679094 0.027787702 -0.44261292 -0.000954383 -0.03800954 -0.018693361 -0.14005099 0.24464308 0.22845517 0.10123745 0.0031521458 -0.23113376 0.16824445 0.011988645 0.08365863 -0.28088892 -0.21928556 0.17806272 -0.056459114 -0.09924918 0.06451413 0.24073148 0.2111558 0.4367634 -0.08087589 -0.20198204 0.033873178 0.22541593 0.06868834 0.035980605 -0.00931077 0.04826294 0.11148908 -0.107254334 -0.1367208 0.2512628 -0.10078342 0.21332835 0.36195362 -0.3131701 -0.3662286 0.14142036 -0.31719774 0.013163992 0.2139231 0.13069832 -0.18005769 -0.1766995 -0.22040282 0.3918479 0.060620014 0.10029673 0.10880729
69 -0.18670265 0.26679477 0.10790631 -0.42014414 -0.027736604 0.095372625 0.2601735 -0.17230508 -0.06389562 0.08759027 0.09048656 -0.28940514 0.18188474 0.56015044 -0.1181786 -0.030854791 0.19723627 -0.02937088 0.04802622 0.17284115 -0.242621 0.09874943 -0.33471578 0.09091515 0.23223965 -0.26202816 -0.062040567 -0.17403722 0.23983781 -0.024085853 -0.0051797894 -0.10092916 0.06967042 0.050051793 0.64818805 -0.48740008 -0.19979133 -0.07269104 0.06351153 0.2623992 0.04162711 -0.07314211 0.22342472 0.2988864 -0.039774027 -0.19812402 -0.05276976 -0.06985302 0.32217368 0.10157725 0.10507491 -0.38825724 -0.10870669 0.2343605 0.16092044 -0.0070443507 -0.03664827 -0.02869293 -0.34358975 0.17080098 -0.17802207 0.20501894 0.06752401 0.49313852
78 0.06069406 0.46548158 -0.06567305 -0.47317484 0.135682 0.20634805 0.3080889 -0.18072307 -0.2360614 0.25294292 0.052209828 -0.32293406 0.42999604 0.43319413 -0.14110938 -0.0007608858 0.18453458 0.081564 0.19109866 0.15125675 0.0148550905 0.271035 -0.34521046 0.038967572 0.06556749 0.053691506 0.10845547 -0.084536806 0.18793342 0.019312449 -0.30815458 0.09888362 0.09677511 0.11652935 0.19178194 -0.41246882 0.04640414 0.111265 -0.29037964 0.15056542 -0.06197892 -0.14511447 -0.07096828 0.36913866 0.006460367 -0.5372294 -0.111126475 0.22205193 0.3510928 -0.0073867724 -0.013218506 -0.16321957 -0.11433502 0.24780947 0.16927978 0.08375969 -0.012878239 -0.350728 -0.3392522 -0.04297969 -0.24199963 0.29039326 -0.04178054 0.17114954
44 0.3232208 0.4673877 -0.14173898 -0.16341127 0.13048558 0.3545379 0.5041634 -0.42177603 -0.28776488 0.26692128 0.049461085 0.20778288 -0.12861593 -0.019533115 0.34540185 -0.2779715 -0.08792037 -0.0031427566 0.44699857 -0.15892321 -0.23157024 0.13041592 -0.31549075 -0.108352415 0.01933773 0.07980364 -0.0874107 -0.15393388 0.13631454 -0.35617766 -0.30808508 0.250842 0.10777663 0.15887234 -0.025761329 0.0013284524 -0.18213744 0.3798217 -0.17407177 0.23603852 -0.0013537678 -0.27010974 -0.3356181 0.62958795 -0.19635518 -0.71157163 -0.11230044 0.22763737 -0.023481142 0.30156213 0.34639108 -0.48025852 -0.0003141556 0.22284272 0.060656592 0.17000365 0.64663523 -0.7359241 -0.070316106 -0.12359538 -0.090678416 -0.06776085 -0.10107894 0.010635998
56 -0.056456104 -0.3886578 0.119191624 0.2767138 0.31690514 0.4957942 -0.10014744 -0.06718305 -0.14554 0.15803325 -0.2737965 0.10849672 0.12390028 -0.49756876 0.15380855 0.11372961 0.12982768 0.06224181 -0.062936425 0.30956307 0.09814664 -0.1839297 -0.06382404 0.09979024 -0.15347156 -0.04616815 -0.41836724 0.052550867 0.0064797723 -0.23503253 0.09437207 0.0047558164 0.17529885 0.4095285 0.2771709 0.10443672 -0.0836286 0.15186246 0.19863787 0.27387893 0.07380394 -0.18175991 0.010495295 0.019096984 -0.19370852 -0.5887666 -0.12484008 -0.099249214 0.08610182 0.35675263 -0.03936539 -0.25778088 -0.19210449 -0.11104645 0.10266059 -0.0038241092 0.1453332 -0.11718208 -0.1809012 -0.01666016 0.14617062 0.1980189 0.047769576 0.0419116
72 -0.013438045 0.20255376 0.29781672 -0.1177547 -0.005730236 -0.071802095 0.06591213 -0.08801348 0.039595015 -0.33795777 -0.07950386 -0.18581125 -0.012112298 -0.04419629 -0.377003 -0.0623436 -0.122006804 0.22529532 -0.0012946343 0.28842998 -0.05863583 -0.013312376 0.2781971 0.09238413 0.11188397 0.014651029 0.19907455 -0.041613482 0.08234587 -0.04093516 -0.123426 0.07523185 0.27743736 -0.21822095 0.11517551 -0.5452281 -0.19782595 -0.16367766 0.07672206 0.08901236 0.10252244 0.09884707 -0.32929745 0.19469462 -0.16605118 -0.18286136 0.28076172 -0.12849367 0.07811189 0.121701695 0.0023110644 -0.10734209 0.18815105 -0.12109808 0.43186873 -0.04831682 0.07554898 -0.61899644 -0.21128495 -0.14505422 -0.43648735 0.11215434 0.059923682 0.73713464
50 0.06518475 0.025860675 0.17057651 0.19600499 -0.167152 0.33661464 0.14547607 -0.114106596 0.0836118 0.096225455 -0.06938798 0.1164248 -0.4158536 0.11378886 0.3991842 0.02292078 0.052601647 -0.062364515 -0.09936789 0.22528464 -0.31640634 -0.07338447 -0.07466913 -0.11641638 -0.15861565 0.07012427 -0.30494735 -0.15625526 0.33325416 -0.5483921 -0.070117325 0.09645697 -0.10217856 0.24705923 0.42009938 -0.19552617 0.012901342 0.30876347 -0.11359505 -0.0051831394 -0.04332701 0.028142218 0.19464867 0.2617337 -0.12005354 -0.08440006 0.17707287 -0.19440274 -0.10974461 0.48538685 0.25742278 -0.5035211 -0.04659797 0.044204623 0.078660995 0.20767096 0.58814526 -0.25188458 -0.04564561 0.3512846 -0.107402936 0.20248578 -0.21742949 0.071646675
49 0.11534123 0.16123648 0.17703585 0.17766623 -0.1157125 0.35440835 0.20316403 -0.241591 -0.28214145 0.17745902 0.05783589 0.19691122 -0.05640239 -0.035435144 0.41226512 -0.030244967 0.059462756 -0.1570607 0.11221818 -0.06485609 -0.17215745 -0.040533792 -0.060373053 -0.025614565 0.05381856 0.19159836 -0.07556282 -0.18120882 0.2850041 -0.63201284 -0.24516359 0.26791432 0.103474244 0.2089635 0.12739249 -0.038496748 0.05291275 0.16000836 -0.29408893 0.12303018 -0.038850553 -0.07897432 -0.33158216 0.45635748 0.0998761 -0.41408843 0.027608117 0.11469235 -0.2802692 0.25202286 0.2607422 -0.39414328 0.0073154634 0.19787621 -0.009651528 0.081450775 0.46015972 -0.511118 -0.017456204 0.08579952 -0.0100535955 0.25280333 -0.24232161 -0.049995765
73 -0.19847615 -0.18478951 0.16305828 -0.43660426 0.20738873 0.2236821 0.074628614 0.20042355 0.078447685 -0.14705224 -0.24953747 -0.16086473 -0.051501792 0.09340108 -0.19497868 0.055831056 0.28985736 0.17935869 -0.19883661 0.19027011 -0.18263905 -0.19020101 0.1743903 -0.011859699 -0.034153335 -0.001987752 -0.064497486 -0.11316908 0.00044534856 -0.040455405 -0.17903076 -0.30618936 0.19453147 -0.3356242 -0.059400193 -0.46588358 -0.23390254 0.106605604 -0.101069495 0.019979035 -0.08707636 -0.09817241 -0.47518885 -0.0938513 0.015520888 -0.41316846 0.16979137 -0.012215738 0.059093237 0.047014836 0.18498503 -0.110576436 0.08326663 0.14834733 0.31165618 -0.4241899 0.21690182 -0.40036988 -0.12724143 -0.1514448 -0.21522523 0.070517704 0.13656321 0.47414637
58 -0.10244835 -0.20632073 0.205957 0.24505004 0.39807057 0.84781724 0.028455157 0.22101201 -0.19845515 0.3735814 -0.22099367 0.108935535 0.22874829 -0.5255154 0.29275188 0.0813356 0.28014427 0.18260618 -0.0073803687 0.20545806 -0.13921417 -0.05096512 0.13936712 0.31226894 -0.11083555 -0.033555984 -0.19377728 0.08222561 0.13193 0.042274565 0.036772426 -0.08182045 0.118039094 0.18875055 0.05475691 -0.16236995 0.023551237 0.32907462 -0.03998248 0.26335606 -0.019421205 0.017720392 -0.15568933 -0.4940484 -0.015597508 -0.5622807 -0.05807015 -0.19508445 0.09073668 0.41377643 0.045776386 -0.24325733 -0.01930324 -0.37490064 0.1466648 -0.37499455 0.2004216 -0.15026276 -0.107598834 0.2795475 -0.10579555 0.18909504 -0.18449834 0.29867423
77 0.18207103 0.49054638 -0.10060748 -0.3405344 0.15273258 0.18910679 0.25910407 -0.2103863 -0.38633397 0.47811866 0.079755224 0.23403536 0.28936407 0.3292975 0.2284896 -0.33326483 0.16303049 0.0031105014 0.25944752 0.067920506 0.028628884 0.18370946 -0.2852079 -0.038292125 0.074029796 0.12012049 -0.12839288 -0.16038287 0.28829417 -0.33239847 -0.28699893 0.07832192 0.063213296 0.2411491 -0.09426143 -0.29906458 -0.070271544 0.18694235 -0.41015863 0.10599902 -0.020079285 -0.12703644 -0.30344352 0.7377857 -0.04357399 -0.7410229 -0.070070736 0.19038528 -0.028806685 0.20533548 0.085592054 -0.31164873 -0.011840379 0.29302412 0.19676417 0.26415324 0.42166495 -0.4656077 -0.28770828 -0.15765068 -0.15680303 0.044253755 -0.041204434 -0.08502986
35 -0.22038154 0.16133189 0.1513823 0.14207622 0.056835424 0.2004927 -0.03765269 -0.33759645 -0.11947977 -0.0449279 -0.18141259 -0.08180575 0.22471382 -0.095805526 -0.35206345 -0.01336072 -0.28487933 0.32984486 -0.079851605 0.30597666 -0.061268393 -0.025276823 0.30939665 0.16621576 0.45428568 0.42703688 0.30892327 -0.37369454 -0.26038587 0.1476775 -0.21812624 -0.018345246 0.1731605 0.013613604 0.36449876 -0.66486484 -0.30440298 -0.113794595 0.2682283 -0.025034728 -0.040472824 0.14378287 -0.15798412 0.13176331 -0.38669303 -0.019648852 0.23940572 -0.27477 0.2758661 0.16184297 -0.2710185 -0.16962588 0.2052501 -0.13234563 0.3177341 0.015597451 0.0345546 -0.6114605 -0.28247243 -0.042852197 -0.18939511 0.1343092 0.13060655 0.42300802
33 -0.06808342 0.10625832 0.32512537 0.16008358 0.25925136 0.20480317 0.08106016 -0.2156586 -0.34659433 -0.22827558 -0.084399246 -0.10746682 0.06351174 -0.45571023 -0.1672177 -0.15079376 -0.2869772 0.004460118 0.1622962 0.096491404 0.022315644 0.21047236 0.1800657 0.19706674 0.25258756 0.3253374 -0.08026392 -0.42112964 -0.17259291 0.06699496 -0.20931134 0.08520804 0.10393799 -0.13288012 0.3646187 -0.42074865 -0.23982824 -0.050555658 0.13718215 -0.06956553 -0.059782792 0.15305221 0.04954199 0.184723 -0.42447954 0.036683783 0.24469633 -0.41189978 0.17783704 0.20501478 -0.5612083 -0.3611317 0.07043402 -0.225843 0.31398672 0.29541963 0.037345566 -0.5005077 -0.11521626 -0.34182757 -0.28718498 0.1690753 0.13522986 0.42796603
68 0.027265992 0.35617155 0.32220984 -0.17096551 0.049910598 0.24695805 0.41744974 -0.115150236 0.050519273 0.2690067 0.13531424 -0.035815585 -0.25518093 0.49538147 0.026946345 -0.034092166 0.41926906 -0.09586467 -0.12144403 0.35579354 -0.48622262 -0.003351955 -0.32539326 0.1000098 0.13553223 -0.16676399 -0.3883048 -0.33429995 0.44628927 -0.40549082 -0.14307082 -0.28225714 0.0074597565 0.11310955 0.6151424 -0.07912743 0.10419601 0.20812717 -0.038195994 0.2894869 -0.21287358 -0.044122543 0.3861711 0.50722575 -0.07627593 0.008114856 0.08458162 -0.29782405 0.016296888 0.4883028 0.269574 -0.6423502 -0.030220771 0.2041893 0.1671094 0.35725302 0.347292 0.031755492 -0.16777648 0.35510206 -0.25058156 0.15835252 -0.12533246 0.28138968
47 0.19487935 -0.16998152 0.33766454 0.21204947 0.17141776 0.51690644 0.08348934 0.04305461 -0.07196228 0.1998367 -0.12161641 0.155725 -0.10722242 -0.1702267 0.10648969 0.020006446 0.088681 0.20587558 0.1980659 0.21074358 -0.056749396 -0.07577435 -0.24397838 -0.21561944 -0.07705505 0.04543821 -0.20022826 -0.03162406 0.30336043 -0.31740537 -0.19509743 0.158841 0.19647199 0.20786853 0.35778812 0.11516585 0.03337798 0.33017904 -0.032966334 -0.0588984 0.11776191 -0.052514087 0.022961417 0.20924728 -0.192401 -0.15148239 -0.060227808 -0.13940997 0.03217399 0.39679706 0.12805314 -0.25724843 0.021957302 -0.12273502 -0.04455841 0.42187485 0.5798111 -0.11476029 0.17675647 0.0042303293 0.053110797 0.1411928 0.12472968 -0.024754133
57 -0.14976895 -0.25075406 0.40131834 -0.07710532 0.4811002 0.7075924 -0.2084046 -0.06599488 -0.10140073 0.08795509 -0.17996794 0.015206992 0.028893916 -0.32022727 0.06388929 -0.019555205 0.40979564 0.23254575 -0.23336096 0.13186468 0.022003192 -0.1092779 0.12308223 0.058142874 -0.22550523 -0.07992214 -0.31198698 -0.04379425 0.21575688 -0.03240771 0.058021758 -0.33990976 0.09327253 -0.076536864 0.047748853 -0.31327382 -0.18869308 0.41490233 0.046260018 0.18508884 0.19375132 -0.15810168 -0.24870779 -0.5879593 0.00034926468 -0.63230634 0.024316788 -0.08168709 0.10098377 0.0052893152 0.13252597 -0.069831744 -0.12378331 -0.15304953 0.32382458 -0.305153 0.32631165 0.05536737 -0.084421195 -0.033854343 -0.11790138 0.20491408 0.028632006 0.41963965
76 -0.22165273 0.1667847 0.14681612 -0.39757788 0.045022413 0.099708 0.17228696 0.058407515 0.11121329 0.007373775 0.0081940135 -0.073801935 -0.003382609 0.25358212 -0.27801374 -0.06625401 0.22010088 0.15931316 -0.21048169 0.054721132 0.041536786 0.08961047 -0.036099803 0.14039783 0.22743872 0.08840093 0.019070933 0.037534315 -0.0668098 0.054189913 -0.11239286 -0.32487166 -0.051845934 0.01021095 0.13060543 -0.55602163 -0.21227066 -0.06385658 0.09573713 -0.16420378 0.123562895 -0.10851613 0.2377812 0.26113883 -0.031497665 -0.5125792 0.10412137 -0.05674583 0.08080276 -0.03216997 0.039256483 -0.22600847 -0.003653292 0.21491826 0.2624168 0.028883992 0.07664156 -0.5268584 -0.19346784 -0.038437635 -0.39202213 0.24837232 0.07139606 0.39853156
29 0.23382196 0.19368418 0.5643442 0.46552035 0.08578754 0.31742126 -0.04588003 -0.25397974 -0.44514087 -0.099878125 -0.46958774 -0.35814103 -0.010677692 -0.11590769 -0.11771673 -0.25358382 -0.20745932 -0.24956308 -0.07856056 0.07119577 0.047943134 -0.26191166 0.17129101 -0.09021057 -0.18448296 0.48413846 -0.12534629 -0.9092378 -0.34085014 -0.030063225 -0.6799196 -0.13644066 0.20499106 0.01493185 -0.03204617 -0.29578748 0.046130896 0.2939635 0.778058 -0.33354598 0.041159023 -0.55298376 -0.074876055 0.37073684 0.21696188 0.25692225 0.47539732 0.06891271 0.049248323 0.75359184 -0.57304025 -0.50331616 0.1528553 -0.7293818 0.31441846 -0.06254925 0.4119821 -0.21548119 -0.03858187 -0.31637374 -0.052127883 0.3894305 0.16311847 0.23803447
38 0.41284078 0.10212612 0.20329238 0.32241425 -0.17372361 0.6039798 0.29502666 -0.029707232 -0.18693875 -0.36030325 -0.1594209 -0.12596993 0.03613758 0.48599988 -0.1735853 -0.15422912 0.09914673 -0.04566816 -0.42395574 -0.16569121 -0.0508825 -0.042370662 0.2922367 -0.17896158 -0.33204886 0.45817387 -0.16896129 -0.4857909 -0.34525725 -0.255968 -0.44204473 -0.26653776 0.024458349 0.037627153 -0.11624372 -0.24713348 -0.06652949 0.025729408 0.2637213 -0.16902733 0.29951206 -0.28872138 -0.22149101 0.37545267 0.23281832 0.23833309 0.3682072 0.11141315 0.06695445 0.58028215 0.058617458 -0.35117593 0.32478815 -0.5265374 0.39236096 -0.308541 0.31127906 -0.39827704 0.009027314 0.20885865 -0.1574259 -0.03454702 -0.18160439 0.19300693
63 0.024280628 -0.16152287 -0.0034375037 0.08902525 0.06216463 0.17062421 0.14811943 0.15347177 -0.24914485 0.44311574 -0.39551356 -0.17938371 0.27267686 -0.03738366 0.16844681 0.049006738 0.06689667 -0.16983227 -0.017257635 0.25423256 0.22120515 0.11851737 -0.43714646 -0.39323947 0.5504631 -0.16107716 -0.4523672 -0.2731813 0.3291288 -0.21084325 0.35157126 0.16512229 0.20709105 -0.12072011 -0.13402364 -0.57451695 0.19357647 -0.21955256 0.46319154 0.45705613 0.07817313 -0.30745658 0.02522659 -0.052673217 0.070537455 -0.0074698674 -0.43640423 0.064753786 0.1864739 -0.098044835 0.07819368 -0.24239828 -0.12778927 -0.28288794 -0.051498987 0.18792447 0.39971557 -0.3336161 -0.5508132 0.21392347 0.30176514 0.59430695 0.19988783 0.32926717
79 0.14921424 0.57196134 -0.110306434 -0.3365786 0.20393856 0.2683571 0.45350257 -0.25416207 -0.18382198 0.52069825 0.19171156 0.067828424 0.25619367 0.33652663 0.09510473 -0.0022483852 0.20162505 0.118021816 0.22195023 0.13534501 0.05755841 0.10789112 -0.3892877 0.19848618 0.1137784 -0.019916048 0.020492017 -0.21569481 0.1943833 -0.1005792 -0.5267206 0.22924569 0.08974885 0.16228361 -0.09046282 -0.5768364 -0.06362069 0.1478123 -0.3779118 0.035578746 0.008698444 -0.21686706 -0.2666868 0.6575551 0.035907127 -0.75260276 -0.30892885 0.41685483 0.04022643 0.14580831 -0.068976425 -0.26263487 -0.27926576 0.23190992 0.25422364 0.21115509 0.29085034 -0.3591388 -0.2736104 -0.17157255 -0.025864113 0.020854421 0.109983906 0.10908873
60 0.16854654 -0.0005128353 0.3149661 -0.17796648 0.2255337 0.43827942 -0.045081694 0.18474892 -0.22665825 -0.073667616 -0.029880809 0.18146832 -0.33422357 -0.08201638 0.28708476 0.44508693 0.13624933 0.1383373 0.22385919 0.08660598 0.079214446 -0.06762564 0.21074988 0.20147893 0.031711213 -0.2277269 -0.18544103 0.014683259 0.23040415 -0.2601391 0.18756497 0.058279403 0.21041892 0.26215154 -0.02506615 -0.19320613 -0.0035391024 -0.18252468 0.08713828 0.12731147 0.070607185 0.039159738 0.13627082 -0.022119902 0.19910252 -0.20898208 -0.16259642 -0.18064669 0.23451811 0.23980427 0.52217937 -0.21378078 0.27226013 -0.27388713 0.08903331 -0.09489293 0.19781384 -0.7757627 -0.35074812 0.1455646 -0.43573415 0.27554515 -0.25681597 0.39154008
75 0.24940309 0.33120528 -0.08646317 -0.18330663 0.17570472 0.17311071 0.23862977 -0.022192854 -0.25711992 0.37685367 -0.15256557 -0.01878471 0.30395967 0.35858935 -0.054567967 0.012049959 0.25468668 -0.12615435 0.2636195 0.34635574 0.1347481 0.0826889 -0.44913355 0.041423842 0.26385006 -0.38736257 -0.14363502 0.058692407 0.32431793 -0.009439643 0.0052655577 -0.25932664 0.12368866 0.03514632 0.07034963 -0.40835908 0.11781842 -0.10946961 0.2631467 0.28745815 0.091235034 -0.21246578 0.03988377 0.22179429 -0.0362347 -0.3253397 -0.12376998 -0.11258214 0.21385369 0.02238543 0.006161503 -0.16415924 0.0477022 0.043766294 0.044147085 0.08730701 -0.09762299 -0.24538425 -0.4225425 0.2204195 -0.035095897 0.29415005 0.10870318 0.35252327
53 -0.45062965 -0.34545597 0.014313525 -0.22217287 0.49533814 0.42166597 0.18572389 0.4435497 0.035254568 0.69245523 -0.2828364 -0.16758165 0.20820084 -0.07905724 0.12846155 0.00010536149 0.29371873 -0.048081663 -0.45904183 -0.16207896 0.18779626 -0.22040717 0.061337072 -0.42272484 0.36348596 0.1898458 -0.711001 -0.323509 0.09074122 0.3384318 0.1845732 -0.19881243 0.3920354 -0.55718154 -0.040035687 -0.7015761 0.22766712 0.13715746 0.38323084 0.46129686 -0.07836267 -0.3907044 -0.4356143 -0.32812688 0.29266655 -0.41076264 -0.31968594 0.10497562 0.2976799 -0.07790304 0.19270131 -0.019004565 -0.377539 -0.5685684 0.358612 -0.1514369 0.77645016 -0.22780627 -0.3180244 -0.058846675 0.12603426 0.58636945 0.33700883 0.52856785
1 0.05798575 -0.21614482 0.07325407 0.4485956 0.250708 0.4958522 0.13642102 -0.26321578 -0.31374708 -0.04279825 -0.275412 0.00010829605 0.023660785 -0.46193826 0.18901171 0.08515745 0.13926661 -0.17462093 0.09385001 0.2643314 0.22794414 0.009118818 -0.2567705 0.110113494 0.085399315 0.017648851 -0.10480341 0.03261592 0.19846345 -0.15955363 -0.039494734 -0.011914124 0.2894985 0.21135572 0.45292005 -0.033753563 0.025383135 0.12447388 0.17771564 0.07428373 -0.0128714405 -0.12296813 0.2387535 -0.085313916 -0.17740917 -0.2757553 0.0891612 0.015662884 0.26274043 0.3931272 -0.21245065 -0.19746333 0.060791668 -0.10655314 -0.03802754 0.115038924 0.24923326 -0.067628875 -0.12111052 0.015921956 0.25085047 0.32375145 0.2171342 0.08009319
7 0.05057068 0.20945376 -0.2551221 -0.47567976 0.24752292 0.234511 0.29055786 -0.07985761 -0.16305855 0.15466127 0.066447996 -0.24191654 0.24905947 0.47907978 -0.16263783 0.001896179 0.2564727 0.10323979 -0.085541844 0.26718754 -0.0744718 0.19691585 -0.28337806 0.028044002 0.14406042 -0.1938485 -0.058454443 -0.16256736 0.31704876 -0.12940663 -0.0010072602 -0.09475056 -0.010669255 0.12467952 0.2268436 -0.5278755 -0.16973723 -0.04075092 0.17549476 0.1196956 -0.016569948 -0.034536574 0.091241494 0.37174267 -0.27307492 -0.2902075 -0.03693393 0.1432733 0.16535866 -0.026055343 -0.07227697 -0.14981687 -0.02405682 0.20353162 0.26233238 -0.012415627 -0.017318996 -0.10518308 -0.3362392 0.026798664 -0.19991964 0.27579764 -0.10967394 0.33215782
41 0.38612998 -0.17912325 0.2797608 0.17041309 -0.06547683 0.5410406 0.23173827 -0.17434427 -0.17218597 -0.11167531 -0.08627702 0.10528884 -0.31499565 0.43589476 0.0652256 -0.15731062 0.1198739 0.10675743 -0.20410617 -0.17240117 -0.047872465 -0.13943097 -0.005883661 -0.16086335 -0.0900093 0.24819915 -0.2696068 -0.15725367 -0.021218644 -0.4536272 -0.45552215 0.04631886 -0.018702282 0.24303882 0.23940264 -0.09800215 0.17375374 0.23578222 -0.16241705 0.055882797 0.0572941 -0.038634304 -0.109084286 0.3114725 -0.0072921677 -0.07646378 0.2019105 -0.06159336 0.034914576 0.25390425 0.2463845 -0.16097942 0.23424111 0.2418312 0.18709415 0.13908197 0.3455477 -0.5041271 0.15812568 0.2825807 -0.0688506 0.22831047 -0.02948648 0.03956105
43 0.020181572 0.022985863 -0.1332209 0.46394256 -0.010490462 0.44173428 0.36231846 -0.29410377 -0.08346177 -0.0068254955 -0.0315149 0.001967705 0.3378206 0.3721525 -0.34164515 -0.22446737 0.034262158 0.04892598 -0.1768081 0.6988222 -0.03858724 0.076150864 -0.054789085 0.11094007 0.18565764 0.24093392 0.07268345 -0.31398624 -0.3083794 -0.019655341 -0.037380997 0.11304107 -0.09242286 0.27462757 0.33733732 -0.045227725 -0.10034579 0.22040844 -0.2706121 0.07667759 0.070804365 -0.2116816 -0.114676006 0.04830313 -0.37079683 -0.17276464 0.20981073 0.23218347 0.37561443 0.23595685 -0.2824099 -0.20855501 -0.15443495 -0.032350853 0.34538123 0.012993842 0.11509983 0.011817472 -0.26400447 0.41090083 -0.19768585 0.11161445 0.2266483 0.42550427
48 -0.05928899 -0.22393738 0.35930553 0.18207525 0.11033095 0.45270354 -0.06526244 -0.0749777 -0.33313257 -0.043785173 -0.30093512 -0.034799397 0.39699367 -0.22458583 0.1439606 -0.025470477 0.028336376 -0.15789607 0.18151517 0.42159447 0.17352633 0.13405152 -0.44374225 -0.09370585 0.146873 -0.21335304 -0.2695129 0.043276064 0.21993648 -0.16028579 0.1753772 -0.051530648 0.25787926 0.14784856 0.079002194 -0.14771247 0.0680791 -0.011174379 0.2748259 0.023492603 0.09404567 -0.25649014 0.08612302 -0.0045152754 0.085848644 -0.17973173 -0.038499597 0.08956936 0.27112934 0.3425606 -0.18683873 -0.0626926 0.056080014 -0.16299959 0.025824973 0.27611384 0.32891327 -0.14311638 -0.18088406 0.1359225 0.06954579 0.18383163 0.0059471517 0.15786219
91 0.18580276 -0.19241953 0.14437927 0.16271734 -0.012676743 0.44865832 0.21090494 -0.097167574 -0.19247466 0.09984131 -0.073318824 0.16296762 -0.30328962 0.076427184 0.3726382 0.076229915 0.20886798 -0.01814726 0.023389809 0.11501553 -0.30153018 -0.16212863 -0.01943809 0.091573 0.0056283567 0.17483827 -0.2100042 -0.08906086 0.1852565 -0.57234967 -0.18262511 0.15296823 0.0020480978 0.24641532 0.1150418 -0.07486688 0.0878739 -0.020716785 -0.2116756 -0.043190803 0.1988951 -0.1177023 -0.13861902 0.2673095 0.18772082 -0.12750337 0.08692158 -0.12676398 -0.034817573 0.45553702 0.16914421 -0.43736213 -0.028667094 0.16923285 -0.029317724 0.2526299 0.5260065 -0.49470267 0.15387656 0.099925876 -0.05022171 0.005393001 0.10517595 0.008350027
42 -0.16227014 -0.15315698 0.12135136 -0.1945585 -0.097545885 0.30112723 0.1909154 0.023858821 0.13852026 -0.26182574 -0.2580116 -0.09557553 -0.0036930202 0.24201606 -0.1857888 -0.009928152 0.14053638 0.11608021 -0.3518335 -0.061903544 -0.19848523 -0.059151057 0.28452414 -0.11350366 -0.04851389 0.2828839 -0.29404855 -0.06931194 -0.08791126 -0.098131195 -0.1869039 -0.28150934 0.14279212 -0.16544214 0.031163787 -0.33869758 -0.09528752 -0.08379025 -0.025129791 -0.104417376 0.1221247 -0.19094159 -0.51159614 0.09581959 -0.04512431 -0.16849066 0.2834011 -0.11817862 0.06723349 0.0020258883 -0.12117209 -0.16485131 0.5051635 0.0850526 0.46756974 -0.07967792 0.23110716 -0.46575913 -0.1338398 0.026061654 -0.26948878 0.1723978 -0.24886063 0.27837956
51 0.05016494 0.17379841 0.19278957 0.08827442 0.10208535 0.3115871 0.26116565 -0.11899863 0.021586176 0.32649443 0.11880928 0.08320154 -0.4873146 0.29571846 0.18186833 -0.1529709 0.32706544 -0.12611783 -0.1902311 0.142221 -0.2922837 -0.04705202 -0.27458483 0.035518885 -0.077610105 -0.06082943 -0.43330753 -0.30870828 0.6028634 -0.3630831 -0.23345211 -0.19972026 -0.016949989 0.033546835 0.4889309 0.08240678 -0.020700904 0.11174758 -0.1293448 0.019733349 0.03999777 0.039512303 0.50766164 0.46897182 -0.07854438 -0.109134234 0.26791513 -0.36040393 0.016935222 0.41171655 0.29466924 -0.68419015 -0.19386032 0.16752031 0.1438956 0.34049022 0.49806204 -0.16558966 0.18652612 0.49383348 -0.24174462 0.41865027 -0.05114474 0.24848382
105 0.006994825 0.04955207 0.14454724 -0.3053114 0.1239097 0.054557033 0.035789777 0.11546086 -0.077177 -0.31454453 0.048259296 -0.09783285 0.07111079 -0.0098063545 -0.1910051 -0.026964288 0.26046398 0.23071392 -0.15378934 0.022315199 -0.19979875 0.26643056 0.16143827 -0.10007723 -0.083866164 0.19222783 0.10880129 -0.120421775 -0.032484006 -0.022645818 -0.021376148 -0.27859357 0.12187333 -0.19843361 0.10179917 -0.78024304 -0.100329205 -0.09093484 0.036035165 -0.00092319335 0.018991956 0.1622524 -0.23323944 0.03844162 -0.007170101 -0.30818954 0.242939 -0.09795314 0.21648099 0.008683108 0.0072415597 -0.13020137 0.21117668 -0.022030005 0.23831674 -0.1028766 0.14020292 -0.6080043 -0.034706056 -0.090214014 -0.26123437 0.2360455 -0.1798639 0.47052848
30 0.25462207 0.13947685 0.32252768 0.019317187 -0.15149036 0.346089 0.09046177 0.0015555775 -0.39391503 -0.3427722 -0.28453124 -0.08340882 0.008814284 0.20148063 -0.23625913 -0.41449127 0.11419206 -0.114950135 -0.3240687 -0.075162955 -0.13660206 -0.102189206 0.2414153 -0.16747521 -0.5637851 0.59983784 -0.20298553 -0.81186306 -0.48738962 -0.32016248 -0.7402339 -0.1845042 -0.0044952054 0.030212952 -0.012170371 -0.24047929 0.0023819387 0.27600262 0.55367315 -0.18729655 0.28384802 -0.3799624 -0.24375498 0.35463718 0.302336 0.21183647 0.38427976 0.0777453 -0.006303551 0.5515402 -0.24516375 -0.38256422 0.10074052 -0.521942 0.579125 -0.31156516 0.45095238 -0.15952548 -0.11262932 0.06494162 0.029410087 0.12294669 -0.19303578 0.32052165
61 0.33779836 -0.21385235 0.2638551 0.011647411 0.3179634 0.5208662 -0.19709088 0.4714937 -0.43370494 0.3608743 0.03133742 0.19367865 -0.04829077 -0.35680908 0.41380632 0.31755385 0.05290138 0.10265445 0.12263212 0.22587414 -0.1804378 -0.22453713 0.25303748 -0.015153629 0.07486594 -0.118450515 0.07338622 0.003130808 0.18243349 -0.23025961 0.114490606 0.110594094 0.24634233 0.32055882 -0.047013428 -0.38062268 -0.09560963 -0.048109602 0.12305511 0.23883067 0.051373757 -0.09912449 -0.139077 -0.21626027 0.08205908 -0.50479144 -0.16211538 -0.20449755 0.13056639 0.37447706 0.48702857 -0.33207282 0.16264872 -0.46214262 0.14748187 -0.2755857 0.09272327 -0.56154454 -0.33563286 0.28713036 -0.47819343 0.29976207 -0.4346874 0.17847541
59 0.1652486 -0.15923597 0.36383998 -0.13796636 0.25411734 0.4244095 -0.048895575 0.13742499 -0.35722873 0.32456043 -0.116760515 0.14827333 0.14940676 -0.6606881 0.5182385 0.19722784 0.11183189 0.119816706 0.014146875 0.3177242 0.02712249 -0.1399461 0.20175442 0.25344548 -0.016370539 -0.11605163 -0.105255485 0.079710774 0.082404695 -0.12955351 0.07233815 -0.057044834 0.23643336 0.39657503 -0.027499657 -0.087372005 -0.06518838 0.24464425 -0.0016329046 0.34900692 0.21642658 -0.14515159 0.012272728 -0.4538711 -0.08764885 -0.51945716 -0.06167159 -0.27660784 0.20883128 0.36692765 0.3786162 -0.34610355 0.15178381 -0.47471046 0.19125688 -0.27397302 0.3335383 -0.3080894 -0.26590315 0.24194536 -0.45019126 0.10795878 -0.20094112 0.2690704
28 0.1331253 0.14134048 0.25314227 0.22764711 -0.091742694 0.35552907 0.24805714 -0.029017074 -0.4941997 -0.37908036 -0.338073 -0.293002 -0.039031446 -0.057031844 -0.13086034 -0.31921822 -0.0011321541 -0.31243914 -0.19933322 -0.13308214 -0.080107965 -0.037153333 0.014428341 -0.0932627 -0.30961972 0.61086065 0.025605025 -0.8196391 -0.47873095 -0.29173306 -0.7607585 -0.108522035 0.27210537 -0.17503035 -0.08194689 -0.3954617 0.060599614 0.14051165 0.7570331 -0.45467868 0.28682953 -0.59596264 0.01580512 0.40347728 0.2629652 0.24018103 0.58171386 0.1330205 -0.0077965506 0.84106106 -0.3787101 -0.45644632 0.02218224 -0.7754989 0.33992696 -0.113644764 0.49997908 -0.30349925 -0.075050496 0.004505617 0.007090378 0.37666786 -0.1023085 0.17884885
71 -0.19876313 0.5542162 0.092441216 -0.7384242 0.07020132 0.10791612 0.36655077 -0.3027105 -0.2298799 0.17132571 -0.18995123 0.085464835 -0.31684086 0.5498507 -0.18877648 -0.02709506 0.59397304 0.04797315 -0.07777166 0.38409013 -0.57153153 -0.14098907 -0.52177936 0.2998613 0.098910525 -0.19633217 -0.013508695 -0.45726335 0.42681533 -0.14131357 0.21799837 -0.4531581 0.22049679 0.14397544 0.6416364 -0.6762247 0.3809144 0.07113291 0.21921292 0.57923514 -0.069004565 0.015701957 0.22946699 0.6860772 -0.17961138 -0.097274266 0.38847607 -0.35866612 -0.008499843 0.24449663 0.13417406 -0.6343181 -0.39288932 0.088673115 0.2974229 0.184098 0.48257068 0.11959746 -0.08886606 0.54164946 -0.122296095 0.18382652 0.12025947 0.27508765
45 0.1295844 0.5631532 -0.1191037 -0.077469036 0.2755136 0.5550627 0.6849347 -0.4398867 -0.37214816 0.26245138 0.04111516 0.11872674 -0.029506797 -0.10666959 0.3581867 -0.33082286 0.069468275 -0.12597395 0.4662185 -0.456973 -0.046620365 0.22313972 -0.45907688 -0.34006274 -0.08873875 0.29054153 -0.25316933 -0.21996853 0.22991921 -0.29424748 -0.075357504 0.41667467 0.22857271 0.07272023 0.058250014 0.15550925 -0.16439644 0.19741978 -0.15753081 0.15817612 0.12394087 -0.38260186 -0.27566794 0.7318181 -0.12641174 -0.7696214 -0.15588589 0.18832214 -0.118284024 0.4713495 0.3636872 -0.55894315 -0.17637254 0.52800596 0.16674797 -0.027055673 0.7164834 -0.793117 -0.19159311 -0.15114364 -0.47211698 -0.062486812 -0.29557478 -0.1294302
36 0.09540078 0.1578771 0.11560884 0.27904806 0.091397405 0.44787148 0.25713104 -0.4881749 -0.33284685 0.008245954 0.0111449715 -0.22111014 0.08431894 0.12745474 -0.7214222 0.046688166 -0.18667664 0.18992595 -0.06762061 0.6717764 0.008400247 -0.13210388 0.22303952 0.31060538 0.39469284 0.6221237 0.24948683 -0.26169857 -0.22483286 0.35587367 -0.17033456 0.1937485 0.16229315 0.23765782 0.4090214 -0.44107032 -0.25388756 -0.13180615 -0.035703484 -0.0819179 0.08942057 0.018525911 -0.19542162 0.11587287 -0.54721797 -0.021652522 0.13992234 -0.17107123 0.20000044 0.15388912 -0.35967815 -0.12851007 -0.030434513 -0.16079287 0.5034931 0.025176529 0.19153713 -0.31067505 -0.50779647 0.14857714 -0.24022414 -0.034152113 -0.06228827 0.3436061
37 -0.12969165 0.05491105 -0.0023403096 0.26785168 -0.009968077 0.5729422 0.20111349 -0.3964515 -0.41522938 -0.111430444 -0.13212724 -0.35325238 0.3497368 0.16815446 -0.51569 -0.31377843 -0.19242279 0.36527634 -0.16308008 0.7865942 -0.047834627 -0.009804685 0.1980891 0.03718529 0.29834503 0.5491412 0.16628844 -0.30186644 -0.079811774 0.3089655 -0.20482962 0.011050728 0.14664266 0.20006867 0.601533 -0.2180756 -0.15341014 -0.05404518 -0.13986833 0.051318277 0.0147664705 -0.07633944 0.01680597 0.17574663 -0.43643683 -0.050699156 0.2844608 -0.07073193 0.24013102 0.31579414 -0.22074746 0.09126011 -0.14562434 -0.15115055 0.5904379 0.11840105 0.08924064 -0.18593329 -0.5147111 0.41098756 -0.21308748 -0.10488441 0.13472061 0.19066793
18 -0.010058381 0.020838685 0.42740658 0.34847906 0.2723863 0.17947848 -0.0637265 -0.34347057 -0.08384633 -0.13686253 -0.310662 -0.11843194 0.06525459 -0.55220765 -0.14378166 0.01355651 -0.19102217 -0.010176015 0.1390446 0.20382904 0.044225805 -0.0068507376 -0.02186947 0.1176475 0.31633827 0.28961527 0.013981051 -0.40028003 -0.008538489 -0.047226664 -0.148715 0.15530345 0.41098556 -0.074561685 0.30242392 -0.11346073 -0.16278091 0.014956295 0.386735 -0.14614223 -0.1865729 -0.05004604 0.04400235 0.24989444 -0.15774131 -0.12496002 0.16382803 -0.16004954 0.19188744 0.35999426 -0.45833552 -0.36084902 0.027115325 -0.24054268 0.08547976 0.14843729 0.24476168 -0.27719966 0.0042663054 -0.28792936 0.17461857 0.3278147 0.1267616 0.244886
4 0.06176491 -0.3679053 0.20110469 0.18960637 0.48604363 0.69335604 -0.07776654 -0.06773751 -0.28043342 0.26614824 -0.13010842 0.24140954 0.2125991 -0.55156946 0.13268769 0.09937008 0.3082823 0.095060416 -0.09285804 0.13838987 0.06994844 -0.22826011 -0.08019652 0.17901896 -0.031905126 -0.008604833 -0.25791577 0.17206253 0.06847025 0.031039162 -0.018517025 -0.33845362 0.22744514 -0.05654625 0.15991946 0.048508972 -0.13187844 0.40345943 0.020137776 0.24553365 -0.040850997 -0.1473185 -0.07346905 -0.40019357 -0.037711263 -0.58311117 0.098965876 -0.113717295 0.06671421 0.2832714 0.23584945 -0.14578077 -0.076625876 -0.14143308 0.12494192 -0.23827529 0.3674397 -0.08548258 -0.08535364 0.15648524 -0.08302269 0.18663736 0.120029986 0.33114198
26 0.19712795 -0.055111725 0.05307999 0.07786461 -0.089904115 0.52233094 0.16492826 -0.11567522 -0.20396231 -0.22672525 -0.26245108 -0.14647396 0.01842903 0.5717748 -0.3348102 -0.041633833 0.36765257 0.0553829 -0.25911665 0.12292347 -0.029057046 0.056030385 0.2806179 -0.1552429 -0.20513701 0.39868817 -0.17174989 -0.107154846 -0.14391133 -0.2637829 -0.07093727 -0.012340443 -0.054818876 -0.13816553 0.06864711 -0.048685666 -0.18123843 -0.07026364 -0.25341085 0.026474569 0.31132475 -0.040077984 -0.48205408 0.235302 -0.01939821 -0.041707814 0.3307526 0.06726424 -0.08027156 0.29934958 0.093055464 -0.17893507 0.37791553 -0.11919641 0.19953783 0.026837299 0.31528717 -0.43382892 0.17477286 0.22936584 0.031436134 0.22516802 0.011102145 0.3810546
84 -0.08601124 -0.20191082 0.18857485 0.5143848 0.1991664 0.07252685 -0.17494348 -0.41906852 -0.31528687 -0.13107356 -0.27463883 -0.14524949 -0.10006103 -0.40245503 -0.089767784 -0.15808077 -0.19676651 -0.12957513 0.29738358 0.28389174 0.07807135 0.02598167 -0.10851441 0.19795145 0.21334565 0.2368301 -0.0054798084 -0.29165703 -0.06453066 -0.04058182 -0.3583711 0.04215347 0.21752812 -0.10637885 0.30621272 -0.14966612 -0.18648313 0.23693225 0.32350335 -0.12782557 -0.027865209 0.13326316 0.14501613 0.25180608 -0.16637056 0.00942939 0.14283316 -0.23561172 0.20505638 0.30332807 -0.29875106 -0.29897946 0.02551272 -0.29828003 0.24676964 0.34813637 0.37931988 -0.33147004 -0.13734096 -0.29410553 0.01335232 0.20771994 0.09005079 0.3981217
83 0.018845592 0.11654658 0.52135736 0.5284955 0.14565381 0.20430483 -0.14393488 -0.22955565 -0.35597602 -0.08835841 -0.177967 -0.06812316 -0.014695585 -0.57017446 -0.06448208 -0.20137163 -0.16746795 -0.06408693 0.15093343 0.14529562 0.10375936 -0.05406376 -0.019200442 -0.00028159874 0.044551793 0.1883858 0.010422598 -0.78889024 -0.107492365 -0.010677544 -0.3834988 -0.16918385 0.23961805 -0.0032939021 0.15397377 -0.24007249 -0.09366806 0.046065327 0.5198993 -0.1915605 0.0009192993 -0.3282082 0.22685035 0.44618574 -0.19245048 0.06705625 0.38532305 -0.05584804 0.09970991 0.5600011 -0.49373946 -0.5048531 -0.18652618 -0.82677424 0.022611529 0.08854443 0.25860286 -0.36626622 -0.15029374 -0.32555327 0.08024333 0.1040883 0.08934635 0.2662596
74 -0.012271548 0.284467 -0.041115962 -0.26671726 -0.09089071 0.26365724 0.37945813 -0.105152555 -0.12524442 0.25326192 0.039791603 -0.14224605 0.35783184 0.39148292 -0.22367594 -0.19244316 0.10635077 0.10258698 -0.17765859 0.475589 0.12007233 0.11571281 -0.2665316 0.14903696 0.34546053 -0.06802278 0.02688673 -0.123025864 0.043395493 -0.027188137 -0.29170188 -0.31711626 0.09804315 0.03693545 0.19470482 -0.4059875 -0.26495975 -0.06976096 -0.11326431 0.4064008 0.15771967 -0.07775722 0.12326859 0.4814111 -0.1938303 -0.28528312 -0.0011368436 0.13711342 -0.021186767 0.077662215 -0.18264118 -0.068525136 -0.12964241 0.12855597 0.20667619 0.08557974 -0.038543586 -0.16888794 -0.36717704 0.4049525 0.061526068 0.056349445 -0.14935268 0.26317847
46 -0.155583 -0.22157523 0.1218809 0.33742934 0.09887951 0.618738 0.0064168917 -0.08501827 -0.4483527 0.09719853 -0.23801924 -0.09167262 0.3439551 -0.20192032 -0.10321108 -0.06587806 -0.06605306 -0.008815106 0.10870503 0.4660696 0.06832834 -0.048115652 -0.24044694 0.03892606 0.0658994 0.089268036 -0.19565053 -0.038475275 -0.015454889 -0.178754 -0.22455084 0.043119464 0.20248272 0.089599624 0.36822918 0.16452597 -0.27548718 0.31404632 -0.053528503 0.16721888 0.081015036 -0.023370111 0.06173178 -0.11914616 -0.28131092 -0.16524504 0.029638013 -0.12208433 -0.05534359 0.5297885 -0.28528008 -0.0861681 -0.06132877 0.0023879139 0.17555976 -0.115122475 0.14915654 -0.030927459 -0.16451661 0.047239486 0.04002027 0.17481546 0.20332503 0.14866585
101 -0.08069446 -0.0074020093 0.16501027 -0.14365152 0.10341333 0.18869486 0.11891034 0.27334884 -0.32924366 0.10234728 -0.13186316 -0.06306002 0.22588728 0.006908206 0.09216606 0.1356446 0.11032656 0.11644124 0.23525096 0.40178415 0.12038007 0.18468192 -0.31861556 0.04997644 0.42391148 -0.38047343 -0.111617446 -0.18782423 0.20201218 -0.53557503 0.025215311 -0.0441994 0.12580907 0.3038637 -0.04036925 -0.28999245 0.16694315 -0.01875607 0.24289198 0.22287488 0.15923895 -0.32995102 0.19186005 -0.14669214 -0.18129879 -0.2767578 0.008981793 0.111504816 0.18707679 0.12579443 -0.08895569 -0.3245897 0.06302044 -0.052882653 -0.06791677 0.11005145 0.07443605 -0.14684904 -0.43107593 0.12665786 0.10569921 0.45915544 0.11559213 0.1571293
106 0.10598273 0.51219743 -0.24644198 -0.49697292 0.29697776 0.22847015 0.4466011 -0.2934577 -0.18556423 0.43508846 0.20841163 0.031084778 0.30922556 0.37852913 0.0985736 -0.20796317 0.21423261 0.23122944 0.3423761 0.21860799 0.06111007 0.21404867 -0.23876832 0.04446003 0.12302321 -0.045973856 0.023962522 -0.037615787 0.14294352 -0.18232976 -0.40515727 0.075648084 0.0675636 0.2260874 0.0037815745 -0.45577845 -0.26272184 0.1034366 -0.03642042 -0.049543586 -0.039138354 -0.19483216 -0.2618396 0.70607203 0.060418412 -0.61348456 -0.23246297 0.29899484 0.15168536 0.082075804 0.09635355 -0.22739078 -0.140279 0.2782304 0.2552093 0.30970624 0.2416678 -0.40327758 -0.33386272 -0.16076079 0.039374933 0.034748085 -0.1290032 0.1632049
11 -0.06254795 0.35814333 -0.010449995 -0.38232222 0.036118433 0.14399874 0.4621668 -0.050664406 0.024003742 0.2369397 0.027073124 -0.20001106 0.0032608886 0.60546494 0.04441803 0.0523193 0.45076644 -0.06427813 -0.15841275 0.35613808 -0.23309048 -0.08122868 -0.3427844 0.06950678 0.06083291 -0.1369433 -0.22771738 -0.2601738 0.5257794 -0.13967307 -0.0844027 -0.3425003 0.03426042 0.118286036 0.55270284 -0.24635182 0.15711768 0.014214127 -0.04481303 0.18109354 0.09975329 -0.07821233 0.40056002 0.52869976 -0.1951872 -0.030892208 0.13477316 -0.29026562 0.21179484 0.19642791 0.14361347 -0.52955765 -0.1881146 0.17079559 0.124089025 0.18512549 0.31972286 -0.03445887 -0.28045276 0.36524582 -0.37892452 0.21860467 -0.074644424 0.3542951
93 -0.61669123 -0.3227419 -0.03234477 -0.291856 0.5497015 0.64800817 0.29520866 0.32813805 0.13772623 0.5732986 -0.418693 -0.23956455 0.05092393 -0.16270696 0.1615076 -0.0062430343 0.2384183 -0.17274345 -0.33030775 -0.15009817 0.14122227 -0.24084064 0.13147299 -0.33067462 0.05971085 0.19544812 -0.59549886 -0.35965756 0.061628647 0.26043376 0.25882477 -0.25623164 0.21787359 -0.5088329 -0.060998034 -0.7197657 0.029964002 0.14957938 0.34374022 0.5200711 0.0011738396 -0.2327527 -0.4674034 -0.3925521 -0.01531299 -0.23243956 -0.39479837 0.00104949 0.29372987 -0.16931182 0.31165543 -0.17074184 -0.41244537 -0.5041992 0.39378223 -0.23421933 0.8094417 -0.2461432 -0.3398141 -0.1480538 -0.008379238 0.3523096 0.17067872 0.62010646
85 -0.0135128135 0.03749012 0.19927321 0.23988673 0.1865612 0.08004796 -0.010132644 -0.31851384 0.0022847622 -0.16382033 -0.17479502 -0.28745067 0.1510216 -0.20971026 -0.27261868 -0.059968166 -0.10977421 0.22525652 -0.08183049 0.36921763 -0.32245618 -0.056438915 0.10526836 0.20595643 0.3404152 0.4315006 0.21366522 -0.23323558 -0.16317053 0.114741005 -0.08811246 -0.0877288 0.18739246 -0.24458325 0.3296402 -0.58834857 -0.22305547 -0.02449986 0.1720987 -0.20945184 -0.12203535 0.13381116 -0.10282307 0.16856804 -0.1818358 -0.16393101 0.2197696 -0.38226253 0.18165252 -0.05306775 -0.3034812 -0.21058027 0.08788836 -0.29539788 0.35560626 0.13279593 0.16065176 -0.48032302 -0.074825995 -0.20923746 -0.2920222 -0.029765783 0.0022089006 0.57437736
96 -0.25995544 -0.04135565 0.11292254 -0.2169333 0.29353935 0.40930846 -0.048554797 0.06349444 0.11042423 0.14293516 -0.15707137 0.04867009 0.32034037 -0.102405146 -0.07910425 -0.054104764 0.33180648 0.22927153 -0.37153962 0.004499204 -0.028537683 -0.25748911 0.24382643 0.16724804 -0.2364495 -0.025779713 -0.2650067 0.32476333 -0.04941253 -0.0007236982 -0.0047107628 -0.42597255 0.16177681 -0.31814903 0.048934303 -0.58665144 -0.0749994 0.27230117 0.04397286 0.15261783 -0.08275518 -0.10529629 -0.43591666 -0.28667077 0.06408154 -0.6130549 0.069639705 -0.16254577 0.118244834 0.14011393 0.078894906 -0.23669317 -0.07570571 -0.16045447 0.25581253 -0.3390415 0.3395291 -0.24930479 -0.093034506 -0.14171273 -0.16163345 0.22273146 0.019469598 0.48229843
9 0.24901019 0.37425867 -0.24506712 -0.30758232 0.21872698 0.24986368 0.3598088 -0.15233667 -0.3117574 0.26446196 0.1984271 0.014133282 0.34710196 0.51127404 0.037807807 -0.21008112 0.042519044 0.06749567 0.2669366 0.2116516 -0.046226453 0.17386027 -0.37594745 0.062150292 0.19474216 0.0014185895 0.028851235 -0.07706238 0.18617627 -0.10054006 -0.38265136 0.022420537 0.10645325 0.078231715 -0.018089527 -0.5246848 -0.07018171 0.15599434 -0.11847742 -0.09238257 0.13327631 -0.07840822 -0.3399573 0.6862212 0.15038775 -0.57195956 -0.19695324 0.37464494 0.010223405 -0.12683843 0.018573845 -0.3617105 -0.25532982 0.285578 0.17816205 0.2698592 0.33065724 -0.3523716 -0.49236715 -0.16495208 -0.18389592 0.07766741 -0.08965872 0.1305013
102 0.09701436 0.38355199 -0.02827507 -0.366969 0.08009996 0.18784463 0.31987137 0.0064169187 -0.015822373 0.25553587 0.048668772 -0.20940432 -0.21290763 0.53631675 -0.09366841 -0.09069677 0.36053962 -0.13876487 -0.24076107 0.44309396 -0.4110471 0.15606552 -0.35242522 0.070832126 0.14753145 -0.14298607 -0.11483217 -0.23299405 0.42287228 -0.23526038 -0.22944292 -0.32101077 -0.029138338 0.022934157 0.5042673 -0.43178663 0.032548912 0.08584613 0.05136196 0.40377596 -0.11137611 -0.02066385 0.5227442 0.43997195 -0.15950756 -0.10690226 0.19335967 -0.047550693 0.07052631 0.16180368 0.23423299 -0.4442481 -0.22822538 0.2214742 0.22163878 0.14433773 0.26751962 -0.01409957 -0.1462701 0.35664392 -0.13696226 0.35995445 -0.019102776 0.35439292
6 -0.005730632 0.116289936 0.39529735 -0.062120106 -0.19572654 0.5057579 0.1613816 -0.15221708 0.07814821 0.20155698 -0.046240572 0.0056814947 -0.32936007 0.384496 0.2894833 -0.03724344 0.19762717 -0.17996503 -0.09678923 0.022797195 -0.1591096 -0.09591247 -0.060129218 0.045788273 -0.18149167 -0.017331326 -0.22528064 -0.2877953 0.54068416 -0.4274231 -0.18388169 -0.12537633 0.011640113 0.09567595 0.5022966 0.0027138644 0.10531312 0.20253277 -0.15643504 0.27204084 0.18807746 0.059350494 0.37004846 0.5381069 -0.112887226 0.10053074 0.22766387 -0.20348355 0.062326107 0.388586 0.3410659 -0.68060476 -0.23160909 0.15072078 0.051180616 0.41661975 0.5955597 -0.23746547 0.1450546 0.4747673 -0.18325885 0.19180737 -0.16130681 0.26166317
19 -0.30009013 -0.023174433 -0.0006423658 -0.20565897 0.44603848 0.65255076 0.08912475 0.18896508 0.1381061 0.324805 -0.22414611 -0.10035297 0.21827617 -0.23113246 0.077687085 0.08542775 0.16618587 -0.015889738 -0.47495174 -0.15306096 -0.035651576 -0.17605442 0.17802142 -0.1563699 0.109269954 0.26368624 -0.62181723 -0.12329164 0.045020066 0.2954698 0.1322041 -0.41633442 0.4520127 -0.60985136 0.07455989 -0.73146546 -0.14070699 0.37056282 0.24336448 0.35242566 0.03839708 -0.024643159 -0.5422281 -0.36347252 0.12126178 -0.5052767 -0.17519271 -0.0015605862 0.12442638 -0.18504694 0.44525558 -0.17237532 -0.1153686 -0.19062209 0.5103934 -0.41981947 0.5833886 -0.19945267 -0.03511468 0.00085837673 -0.091494754 0.13147673 0.1187531 0.4211624
67 0.14051253 -0.1402427 0.3705626 -0.1148959 0.0961673 0.15699837 -0.07345639 0.0039736703 -0.102404565 0.012941169 -0.11817387 -0.06916524 0.05707459 0.089095235 -0.068632334 0.2663111 -0.0018124399 0.25512636 0.0031460708 -0.057091005 -0.22944051 0.0062048305 0.17672014 0.0978445 0.33161563 -0.0315144 -0.047626343 0.07354227 0.02934823 -0.035089638 -0.014569015 -0.081610695 0.02814767 -0.053042844 -0.06895842 -0.4656104 -0.11329356 -0.040398285 0.120974906 -0.098425016 0.055206604 0.0042292257 -0.32139164 -0.023837117 -0.0076084835 -0.36905146 0.13349311 -0.34304553 0.051954288 -0.1675846 0.09874881 -0.28216866 0.42878023 -0.23633672 0.5335655 -0.04031586 0.08376507 -0.45895034 -0.17095935 -0.010290045 -0.3602441 0.20894094 -0.16414906 0.45786983
2 -0.2402719 -0.2550161 0.20495297 -0.27402997 0.41394284 0.5049176 0.19582556 0.036474284 -0.011122082 0.0017430879 -0.023560934 0.073990405 0.13112068 -0.30816874 -0.04373106 0.16816844 0.36618492 0.13062628 -0.24105544 -0.07805123 0.024273042 -0.067763396 0.25499585 0.06754366 -0.17722376 0.09451486 -0.28972167 0.17137037 0.014893527 0.03706999 0.02980832 -0.4171354 0.29620734 -0.28389725 0.10832677 -0.37188995 -0.016281657 0.21773386 0.03595026 0.015312404 -0.16049351 -0.10355227 -0.3590491 -0.23459527 0.044738982 -0.5179046 0.16874914 -0.017881924 0.015469087 -0.0783566 0.20696887 -0.19888395 0.055285748 -0.108098276 0.5362652 -0.2442644 0.29438326 -0.08571578 -0.12557748 -0.15383036 -0.19588849 0.3355297 0.0097731985 0.5198416
5 0.43998882 0.40853673 -0.04118307 -0.059854608 0.044074554 0.45761874 0.32235402 -0.34041056 -0.35677546 0.25096092 0.040142614 0.11822729 -0.040798325 0.013733725 0.21974105 -0.19956347 0.012856137 0.021878468 0.26202714 0.0538098 -0.21445961 0.10111662 -0.3558035 -0.08310012 -0.17459062 0.3022339 -0.018565228 0.060305376 0.21305227 -0.31590325 -0.36390358 0.29129797 0.042791836 0.2612935 -0.0039491667 -0.17722732 -0.0060152225 0.31111875 -0.21331571 -0.10067574 0.027325936 -0.13670442 -0.25052458 0.5860146 -0.0034608655 -0.58826894 0.03971424 0.15495366 -0.14890428 0.32733884 0.20586938 -0.42726287 -0.13978346 0.34527734 0.1581315 0.32467458 0.63351005 -0.6134457 -0.14081918 -0.18143919 -0.12660031 -0.13770889 -0.08516434 -0.056732744
0 -0.11249924 0.041665237 0.2804471 0.027125563 0.30808008 -0.008103134 -0.07671791 -0.31462586 -0.09700168 -0.3132745 -0.20308338 -0.25145307 -0.014139327 -0.15000959 -0.31885192 -0.0047557494 -0.29469252 0.19328672 0.039334383 0.2481061 -0.14656481 0.023320397 0.1643096 0.26601687 0.4497883 0.473423 0.07895173 -0.24918838 -0.08225703 0.25538102 -0.33406985 -0.061744865 0.25037208 -0.28563097 0.37638876 -0.46096933 -0.2860486 -0.041441217 0.09121747 -0.08257211 -0.053433497 0.13589986 -0.06778504 0.003699145 -0.17967182 -0.13933706 0.22995226 -0.30009833 0.30396804 0.16220973 -0.35432443 -0.20917502 0.10394842 -0.20116216 0.34256274 0.038274482 0.27572894 -0.53001475 -0.15133882 -0.24722987 -0.08008354 0.15879764 0.089899026 0.45435125
97 -0.24398838 -0.26282242 0.16601618 0.17915808 0.30423215 0.78598386 -0.022354312 0.15569797 -0.24381898 0.27872443 -0.21892859 0.08680181 0.117018215 -0.5534622 0.23994806 0.034133002 0.21258877 -0.08900489 -0.11160601 0.18201347 0.074478865 -0.15797995 -0.08867758 0.13459381 -0.2386011 0.08174997 -0.20831388 0.09980576 0.112280555 -0.20827329 -0.043992497 -0.18533155 0.31972337 0.07782597 0.19917607 0.01268053 -0.07539038 0.39466015 0.06721093 0.2609376 0.20864955 -0.031360466 -0.07534032 -0.4572392 -0.08399007 -0.66212076 -0.022247702 -0.15950795 0.107521795 0.16744699 0.18062083 -0.17628004 0.101895936 -0.31722012 0.33627924 -0.29278773 0.2306628 -0.044272725 -0.10938786 0.047658693 0.03299683 0.09003506 0.25016 0.32678053
92 0.06773939 0.17132775 0.10059233 -0.064397655 0.059765127 0.40682915 0.23149343 -0.09249479 0.10225351 0.31532338 -0.030707398 -0.08292274 -0.33042392 0.24324149 0.40102112 0.036204353 0.26836574 -0.08329104 -0.14268614 0.19311447 -0.5170945 -0.11581744 -0.21542011 0.16734247 -0.09183899 -0.028963165 -0.30848566 -0.34104276 0.4935621 -0.5222269 -0.27489176 -0.061715778 -0.08167113 0.119935445 0.49945173 0.019391181 0.019070912 0.20972995 -0.052128356 0.24566178 0.00024101608 -0.0330032 0.4122523 0.61434585 -0.080596186 -0.023621906 0.22916368 -0.24327368 -0.017596202 0.34944654 0.3052774 -0.68942225 -0.09904401 0.1737256 -0.0896758 0.17268088 0.43805423 -0.12659155 0.10946209 0.368814 -0.18516865 0.22526264 0.04981525 0.1484878
89 0.21048805 0.30454102 -0.0014117784 -0.23213562 0.20702644 0.3949719 0.4221818 -0.27843374 -0.38055873 0.24006712 0.0892438 0.1428665 -0.094447896 0.13279222 0.34702387 -0.14305641 0.14243706 0.124919794 0.31940657 -0.093437165 -0.119665384 0.121973954 -0.24384347 0.11966996 0.08103519 0.082511045 -0.2385857 -0.044247128 0.06470736 -0.35962534 -0.36503717 0.2248414 0.074581705 0.22236021 0.014112924 0.069204405 0.017404314 0.31182578 -0.3319083 0.07387487 -0.01178072 -0.11415076 -0.3103414 0.7383368 0.06202248 -0.6144677 -0.087642014 0.17877394 -0.19924465 0.19902682 0.25371847 -0.52584803 -0.059321236 0.34720606 0.187856 0.38357073 0.6599158 -0.58914095 -0.14692216 -0.088696435 -0.17761306 0.01909305 -0.18786058 -0.04357137
65 0.49164027 -0.057308022 0.34851888 0.051182527 0.040039893 0.17935872 0.00023637463 0.036659505 -0.101620965 0.12787908 0.044078767 -0.0051066633 -0.19027519 -0.10773347 0.29651135 0.15361097 0.253895 -0.040942922 0.07575428 0.0849555 -0.25643727 0.10347101 0.056865145 -0.11987412 -0.03735944 0.20054431 -0.121139154 -0.08621588 0.16306138 -0.4650545 -0.20609063 0.06551335 -0.0071841762 0.277834 0.12928082 0.0076505 0.16469438 0.075736046 -0.13050668 0.31301856 -0.059773244 -0.04205577 -0.08304468 0.20693672 0.0139149865 -0.17929177 -0.14777054 -0.3153651 0.09919 0.38116664 0.44194558 -0.5528941 0.29839543 0.044738304 0.08368695 0.32460666 0.52160275 -0.45246544 0.011765473 0.1455792 -0.073233664 0.12199875 -0.29568592 0.08886648
14 0.17383093 0.042037494 0.32417923 0.445485 0.0008135128 0.5127914 0.27258906 -0.16234684 -0.53913176 -0.24019834 -0.22312151 -0.31153938 0.051378887 0.0052976343 -0.1857976 -0.2665362 0.09402198 -0.19795583 -0.18285954 -0.16101228 0.116121605 -0.072210565 0.14584026 -0.16243705 -0.19392692 0.47888598 -0.07173952 -0.9082077 -0.5973219 -0.34004822 -0.81880087 -0.19403411 0.24907653 -0.15168564 -0.029164711 -0.2005394 -0.0060230643 0.23652795 0.57374674 -0.33584255 0.1323533 -0.605216 -0.07720802 0.43705004 0.33084893 0.17146431 0.46998763 0.23874089 -0.02527516 0.5630357 -0.3824982 -0.3604059 0.06473882 -0.72145075 0.28318307 -0.17845882 0.3184336 -0.20338522 -0.0352368 -0.06172184 0.012848206 0.42351314 -0.14771815 0.23496734
17 0.25812683 -0.12495372 0.3073899 -0.04008803 0.28099707 0.5540559 -0.22083306 0.34967315 -0.27813992 0.16549636 -0.09941619 0.027363047 -0.025782209 -0.51370794 0.38270518 0.21603161 0.08113012 -0.004148614 0.047646377 0.3165895 -0.21835066 -0.035168882 0.26150855 0.09115658 -0.04669343 0.04893071 0.13584761 -0.11001162 0.24068943 -0.2783819 0.109156735 -0.12647596 0.25351465 0.4358989 -0.08746437 -0.16119343 0.14400376 -0.1167898 0.21694978 0.3936075 0.14279744 -0.023019424 -0.019524584 -0.22443299 -0.052459393 -0.495763 -0.26798645 -0.30038932 0.24111976 0.23219748 0.43239442 -0.22220273 0.12349991 -0.2270281 0.18650733 -0.24229108 0.16377427 -0.5597551 -0.15957592 0.21347739 -0.6004535 0.3296675 -0.36894834 0.3266121
24 0.29609856 0.063513786 0.14699715 0.1871535 -0.20253602 0.34825766 0.28840354 0.011550382 -0.18514991 -0.35270295 -0.18292758 -0.2797252 -0.08533265 0.48083174 -0.13658082 -0.1138641 0.062144116 -0.062409732 -0.36968794 -0.04864793 -0.10427295 -0.13886291 0.2903584 -0.2705586 -0.37727842 0.550467 -0.28858015 -0.41473883 -0.42778572 -0.22530243 -0.64247984 -0.12347524 -0.051482294 -0.10247463 0.25577882 -0.13268648 0.05574311 0.045303863 0.20519106 -0.07064384 0.36729577 -0.32232246 -0.35368747 0.20536149 0.08954479 0.007066927 0.36494327 0.011059349 -0.053389344 0.34715173 0.17415474 -0.2915952 0.25604296 -0.09027884 0.33864558 -0.15964343 0.18083473 -0.5744309 -0.059905004 0.3063264 0.016630175 0.13334176 -0.16209882 0.24932884
13 -0.062348343 0.6360437 -0.03243226 -0.53874856 0.059266996 0.189322 0.35332313 -0.31728137 -0.25531745 0.17305638 -0.07866007 -0.075646 -0.29288107 0.5918565 -0.1596937 -0.14705826 0.50726575 0.06270076 -0.052786574 0.4604348 -0.52101153 -0.27498087 -0.33621964 0.29837683 0.26974678 -0.18757133 -0.008585988 -0.37997332 0.5292027 -0.060378104 0.06644632 -0.6028441 0.13837811 0.20182362 0.72303295 -0.55279124 0.34559876 0.0824224 0.34240946 0.40583947 -0.25077432 -0.1295581 0.27803168 0.6431825 -0.04674826 -0.10626103 0.3651864 -0.2581727 0.02596122 0.14932379 0.25533426 -0.59250164 -0.38290775 0.09307039 0.2246459 0.2365154 0.32992294 0.15321836 -0.22121885 0.5631668 -0.22245511 0.30396137 -0.044474386 0.3220523
20 0.070806585 0.08698487 0.54141283 0.48957485 0.18538155 0.14425974 -0.06283841 -0.39130422 -0.54276645 0.03517141 -0.32804856 -0.15100284 0.0724775 -0.5968598 -0.1936092 -0.080624625 0.03766902 -0.16027933 0.15376714 0.032652736 0.034732386 -0.13086803 -0.0037518658 0.13345784 0.03305212 0.23971334 0.06421335 -0.82075506 -0.20175739 0.010276483 -0.34235173 -0.090542205 0.28823972 -0.05741609 0.17699735 -0.14085504 0.020439088 0.17906618 0.5001546 -0.17287466 -0.061116673 -0.28949 0.2564676 0.3097076 -0.13006277 0.18026887 0.30168712 -0.068233445 0.21786712 0.46517757 -0.4535479 -0.6753112 0.025083607 -0.62878394 0.18967915 -0.08314042 0.21171454 -0.13508365 -0.23439953 -0.3017436 -0.014575816 0.09639475 0.101566084 0.40004954
62 -0.1939499 -0.19796951 -0.057959672 -0.09353306 0.4470891 0.50661105 0.23950659 0.5490755 -0.18626921 0.45950815 -0.45946518 -0.40340525 0.17698936 0.13340788 0.24088 0.10693312 -0.018175574 -0.29123518 -0.023439767 0.1810387 0.15290672 0.038422607 -0.39353943 -0.3852625 0.692979 -0.039320283 -0.54505444 -0.22223738 0.15775485 -0.09148677 0.40664205 -0.081758946 0.20649908 -0.1767756 0.013183683 -0.6930195 0.30508196 -0.10162477 0.6085633 0.56055796 -0.06069722 -0.4974695 -0.18608852 -0.013267303 0.08481139 -0.2499838 -0.467327 0.19005036 0.22146934 -0.124919035 0.12920843 -0.13973399 -0.10939638 -0.38074005 -0.06066208 0.09508663 0.5040895 -0.20607072 -0.3707745 0.07315749 0.22002752 0.43020397 0.35941795 0.1650937
100 -0.2008824 -0.046720963 -0.12865017 0.035607364 0.23809867 0.30122933 0.18374762 0.33052406 -0.20291214 0.3466473 -0.26151702 -0.19581763 0.18939428 0.038587034 0.06334123 0.16316058 0.10946589 -0.15049787 0.29482183 0.36817575 0.23853396 0.23089254 -0.44888422 -0.19869515 0.5842512 -0.17541242 -0.3132086 -0.2967362 0.28061825 -0.25145382 0.3244595 0.10458664 0.17466965 0.050642207 0.040133476 -0.44159037 0.17493698 -0.24219193 0.6215721 0.4790441 0.087577604 -0.34771973 -0.055537295 0.029758897 0.08189036 -0.1784497 -0.53471744 0.208281 0.28772706 -0.027832337 0.0072942595 -0.104756184 -0.060754586 -0.32201135 -0.1483578 0.24737309 0.38146585 -0.31156963 -0.44964758 0.2696545 0.2673629 0.48963377 0.070456326 0.2391604
88 0.23508923 0.065055184 0.13518925 0.1375485 -0.006507246 0.53943986 0.19425346 -0.14017755 -0.23015921 -0.36144763 -0.14128403 -0.2561256 0.00341513 0.5092052 -0.17207764 -0.04996456 0.16397263 -0.06300244 -0.40604556 -0.05138801 -0.0749297 -0.014711474 0.26559195 -0.2709196 -0.3529061 0.61310124 -0.14085932 -0.615429 -0.26722452 -0.42326963 -0.42254776 -0.09867811 -0.069961384 0.035755306 0.09430069 -0.16017169 -0.04921009 0.08234864 0.049742863 -0.061306465 0.27295038 -0.29818496 -0.28688085 0.25259656 0.291702 0.17625761 0.36413133 -0.0067496174 -0.050470628 0.44430283 0.22884515 -0.1668819 0.26214457 -0.16748333 0.40039122 -0.24603394 0.25850245 -0.43299824 0.16369562 0.3517023 -0.1786467 0.13368869 -0.17790355 0.121238016
66 0.3040265 -0.11783628 0.16083989 -0.0732775 0.22534618 0.16552745 -0.03149274 0.28753862 -0.3380001 0.027376758 -0.17337762 0.1489257 0.2720123 0.073192544 0.09491326 -0.013381022 0.17823406 -0.196952 0.23683135 0.37652844 -0.06846547 0.09881766 -0.20192248 -0.13243674 0.29958773 -0.22095484 -0.12588912 -0.006025699 0.4598786 -0.45424944 0.20580554 0.03748115 0.09052442 0.187339 -0.10217804 -0.3789502 0.19950606 -0.5261182 0.36352724 0.17286961 0.13857855 -0.13783276 -0.09824737 -0.016051799 -0.0064710225 -0.3382237 -0.21120963 -0.2140208 0.29791012 0.21349227 0.20931287 -0.23194268 0.06771931 -0.27360138 -0.075069465 -0.027264904 0.16110136 -0.3658213 -0.45643142 0.112713315 -0.017905759 0.27163407 -0.19128573 0.27639976
103 -0.08903268 0.5970662 0.19275402 -0.6743185 0.018762294 0.12635064 0.23301902 -0.19620393 -0.34329298 0.31438646 -0.06394247 -0.027554074 -0.34216952 0.58199155 -0.2918307 -0.06385443 0.40693614 0.20637251 -0.016042594 0.4421592 -0.5113138 -0.23434049 -0.33451045 0.19296709 0.18041354 -0.25146243 0.002440183 -0.34812203 0.4163805 -0.051814526 0.081895865 -0.36363953 0.2918244 0.18216614 0.6639015 -0.6413311 0.1995251 0.16375802 0.21787956 0.35932875 -0.018536272 -0.08967395 0.2113162 0.5614223 -0.21712543 -0.02840906 0.39563712 -0.41421774 -0.095702864 0.17162521 0.17929126 -0.7182157 -0.39446995 0.13672034 0.30058095 0.21162714 0.3183372 0.16816616 -0.2836478 0.49541667 -0.28180587 0.32727152 -0.006745263 0.23428741
27 -0.040073607 -0.19395138 -0.09757583 0.0014524679 0.28970152 0.28907967 0.17824587 0.41338235 -0.3214785 0.31094143 -0.41893968 -0.11658772 0.1662391 -0.0893063 0.19223548 0.07418263 0.104271255 -0.22114857 0.18550077 0.24217403 0.2448442 0.12483843 -0.5504057 -0.28317523 0.4725708 -0.1978432 -0.32026476 -0.3682621 0.27451664 -0.25961927 0.31217012 0.031646647 0.164481 0.080876574 -0.13950534 -0.4844979 0.2871741 -0.32562512 0.41969422 0.5329824 -0.018924778 -0.26963997 0.16633971 0.062661216 -0.08618943 -0.17499004 -0.23140498 0.026623234 0.35177958 0.08651395 0.0136277545 -0.055889416 -0.1739288 -0.19470716 -0.011291725 0.18300152 0.1741322 -0.4232933 -0.5657416 0.19109577 0.2558685 0.31348917 0.13583297 0.25642824
23 -0.4994417 -0.4602741 0.054281536 -0.47434166 0.6186665 0.5090227 0.08787455 0.34494472 0.085507885 0.64861465 -0.44124696 -0.25330654 0.11302804 0.030184215 0.19401276 -0.003139614 0.25894076 -0.003601285 -0.3261263 -0.06246965 0.14494513 -0.18010011 0.2630467 -0.2965487 0.2668369 0.20146088 -0.6189216 -0.34124413 0.07465522 0.2871799 0.22260107 -0.24748278 0.20613936 -0.5236093 0.060008347 -0.5803648 -0.062173966 0.049594563 0.3976937 0.4676868 -0.25065765 -0.22816826 -0.51066804 -0.2720921 0.11637006 -0.42049155 -0.31450903 0.08685481 0.3477983 -0.12662639 0.46465257 -0.12771972 -0.26108822 -0.64119893 0.47221354 -0.06931717 0.6504943 -0.20530683 -0.27295917 0.049536787 0.1302312 0.33612928 0.25189257 0.63875556
52 -0.39717352 -0.12968795 -0.0385402 -0.3095733 0.6292918 0.5324961 0.36682513 0.39058724 -0.08389862 0.56550425 -0.6041221 -0.19650854 0.26391354 0.104780145 0.07854799 -0.014491852 0.3149794 -0.016837504 -0.09418699 -0.09538735 0.3716124 0.0070961784 -0.1706866 -0.5283677 0.47031045 -0.10673442 -0.6810623 -0.47436354 0.17928627 0.13115942 0.61432064 -0.008834493 0.30449027 -0.50432074 -0.03322364 -0.664203 0.22248654 0.02538473 0.6512088 0.5581332 -0.07831993 -0.3112097 -0.51333755 -0.22565809 0.0051169596 -0.24212377 -0.47678435 0.119856715 0.18723905 -0.12789758 0.32247472 -0.379817 -0.22718672 -0.39722213 0.17482606 0.007105311 0.53305954 -0.28849193 -0.34221366 0.048943244 0.4615013 0.5284142 0.2668708 0.31927454
90 0.26469618 0.5156621 -0.14162858 0.015411243 0.31291372 0.6083531 0.538589 -0.31845796 -0.40784344 0.34669167 0.11399818 0.086996034 -0.099677466 0.047406893 0.24967468 -0.20233631 0.0035019182 0.028027717 0.36972773 -0.3942919 -0.24906673 0.14833128 -0.43346176 -0.21575643 -0.0121609 0.175897 -0.21642618 -0.24867104 0.086729854 -0.25502995 -0.12441081 0.4456606 0.07275255 0.0805109 0.07704303 0.12033284 -0.027370099 0.33590922 -0.14669457 0.15324748 0.016942116 -0.28013077 -0.40304658 0.76613206 -0.14965612 -0.8960838 -0.028040348 0.18701427 -0.24304411 0.4315705 0.40052053 -0.5087477 -0.19110939 0.36045748 0.28178144 0.17563541 0.6692693 -0.80162495 -0.18700768 0.040886365 -0.4077185 -0.21263708 -0.25388795 -0.15620527
40 0.12123721 -0.19525397 -0.034185555 0.16599587 -0.10966279 0.47397962 0.51706195 -0.19127083 -0.25247473 -0.18250811 -0.13080701 -0.18630269 -0.041744154 0.51818055 -0.22326756 -0.23238052 0.13503748 0.0071759447 -0.42421398 0.27296853 -0.060416643 -0.06520931 0.17359528 -0.2946019 -0.08234159 0.33697343 -0.15390275 -0.16843157 -0.10032171 -0.043907445 -0.3425282 -0.11489204 0.14266749 0.07948177 0.38685417 -0.24460533 -0.2687721 -0.06495686 -0.16276373 0.026342634 0.27168265 -0.29551515 -0.25696108 0.18662873 -0.15981895 0.10032329 0.23163883 0.14525205 0.06184778 0.48506337 -0.08765089 0.07174869 0.24732576 0.050634045 0.3049577 -0.17618883 0.19436316 -0.20647128 -0.035399534 0.26431242 -0.17462179 0.17836319 -0.060689 -0.050159954
95 -0.35773125 -0.17811061 0.15302688 -0.31751266 0.73589975 0.73431855 0.19518423 0.12992394 0.19242224 0.26941043 -0.07467616 -0.14551364 0.18250991 -0.09192482 0.15553974 0.012270183 0.28585598 0.10168714 -0.5099672 -0.12903135 0.07520394 -0.18447869 0.27598217 -0.10224598 -0.05686602 0.19490628 -0.46501568 -0.05155114 -0.071107544 0.24798872 0.15500611 -0.2768309 0.27123937 -0.46179435 0.07291595 -0.6752357 -0.05089263 0.22168174 0.14865245 0.53086996 -0.012708248 -0.16193803 -0.5712826 -0.18825732 0.20379235 -0.29862824 -0.15581945 -0.08725383 0.09221743 -0.091378525 0.43308347 -0.16757329 -0.21002048 -0.27179974 0.31873828 -0.3180178 0.6160112 -0.12785052 -0.16640255 -0.09774617 -0.009552801 0.09300098 0.08536325 0.46618444
86 -0.104432866 0.02679416 -0.026908966 0.096616626 -0.033041127 0.47630444 0.33093625 -0.3666966 -0.3125385 0.04968685 -0.048805654 -0.05161075 0.25936133 0.2779451 -0.539778 -0.08751229 -0.07523098 0.35227326 -0.11897757 0.60105777 -0.0941746 -0.09908231 -0.005716494 -0.016779857 0.37856033 0.6042614 0.17492929 -0.33883366 -0.21726516 0.15691715 -0.2300582 0.038723532 0.1651338 0.26073587 0.6913448 -0.21169682 -0.24816273 -0.044165812 -0.2363627 0.14013404 0.127758 -0.131926 -0.05422208 0.13455425 -0.61688864 -0.062000513 0.16616128 -0.17140399 0.22921105 0.35678822 -0.3705123 0.11669626 -0.005518346 -0.21507749 0.42400882 0.13673566 0.11193267 -0.18131301 -0.19228856 0.33073092 -0.1253949 -0.0058648637 0.22208653 0.2308719
10 0.16210325 0.7453378 -0.16349591 -0.12923203 0.24986573 0.4533278 0.40477085 -0.33600312 -0.49789837 0.3829362 0.16928174 0.1619505 0.011552255 -0.056929797 0.27814692 -0.20151517 0.008682577 -0.030892076 0.4814895 -0.38010663 -0.12695879 0.17516227 -0.46233845 -0.19119655 -0.11319719 0.13391235 -0.24654068 -0.11995402 0.31597397 -0.23000161 -0.3164165 0.48848084 0.22867107 -0.042199433 0.14083138 0.10589087 -0.20088361 0.36253294 -0.11432212 0.21890858 0.21419655 -0.23728162 -0.42011487 0.5993034 -0.2525226 -0.8020137 -0.07063006 -0.04514867 -0.27499074 0.36588526 0.39380926 -0.4738026 -0.2038074 0.47740206 0.25595164 0.11506519 0.70599085 -0.8548407 -0.211215 -0.005901396 -0.30055588 -0.0015679671 -0.20986064 -0.028376529
22 -0.01575565 -0.013133429 0.43408975 0.34489304 0.28262478 0.21524195 -0.1621537 -0.39196125 -0.504531 -0.049718633 -0.41363108 -0.2672527 0.08691198 -0.6411543 -0.21729434 -0.029511312 -0.054487523 -0.09688834 0.10922231 0.18206625 0.12894113 -0.17060621 0.016508501 0.103248894 0.0037795193 0.3533365 -0.09030105 -0.7747985 -0.13638783 0.005293029 -0.284295 0.053153686 0.20472392 -0.037593946 0.12239345 -0.25698245 0.024930704 0.15370817 0.5540352 -0.320673 -0.058540326 -0.32411203 0.2501193 0.24996103 -0.15861073 0.20106602 0.23992433 -0.09535731 0.16888952 0.5987266 -0.5533044 -0.5284885 -0.05035122 -0.5839897 0.06815589 0.0572982 0.20050794 -0.23604243 -0.26581293 -0.3793378 -0.036852077 0.15249048 0.04934871 0.33029178
21 -0.4989241 -0.2837409 0.087390825 -0.41434255 0.6166786 0.6006926 0.1415174 0.32578522 0.12021717 0.64255846 -0.50526315 -0.27047706 0.26585516 -0.080316894 0.17162302 -0.03213343 0.17675012 -0.055645473 -0.28414294 -0.029193943 0.21407226 -0.14691266 0.21714994 -0.25947708 0.2305366 0.22883068 -0.6371649 -0.2540434 -0.020409556 0.32909256 0.14581425 -0.2587488 0.2539146 -0.65177006 0.020999836 -0.66280246 -0.15298705 0.21078135 0.31451082 0.44588703 -0.24029787 -0.25337276 -0.54294163 -0.23854795 0.09565543 -0.3746667 -0.35870686 0.11997688 0.2470907 -0.07894504 0.40761632 -0.15500058 -0.20459123 -0.5889139 0.41457003 -0.16832201 0.67203325 -0.13299985 -0.14001232 0.06840558 0.10179867 0.25834852 0.19788054 0.51943296
94 -0.2813166 -0.15062813 0.10480254 -0.34975764 0.6632639 0.54345083 0.19256176 0.29874763 0.124746695 0.327013 -0.13635308 -0.05201354 0.08806421 -0.09186425 0.060634296 -0.08283766 0.24590488 0.1944782 -0.52063924 -0.080195636 0.2503716 -0.22835629 0.27954248 -0.09254182 0.033864755 0.21492997 -0.40652558 0.0027992786 -0.03858705 0.34884736 0.06857525 -0.06595186 0.34804705 -0.4803959 0.19501668 -0.6849554 -0.17217024 0.27541077 0.13067357 0.30367196 0.03754051 -0.007960982 -0.43219376 -0.26451856 0.080932215 -0.3838329 -0.20463751 -0.16437197 0.111702666 0.0073869084 0.40204364 -0.25120384 -0.20624788 -0.26406848 0.44073007 -0.41614366 0.57614124 -0.13370481 -0.26829344 -0.18100022 0.045999788 0.19634989 0.2784783 0.45142385
87 0.30072242 0.21042751 0.23959136 0.11240843 -0.04833072 0.4224346 0.21152708 -0.103240654 -0.31881908 -0.3392516 -0.08253598 -0.23772578 -0.118436284 0.29467583 -0.043083854 -0.09264337 0.020958923 -0.12684132 -0.39173305 -0.12598273 -0.08815852 -0.16735478 0.32587534 -0.21864033 -0.50310737 0.5376762 -0.29404554 -0.8202118 -0.46300575 -0.31105077 -0.7349418 -0.19826229 0.06942466 -0.048266225 0.108080775 -0.15996979 0.019098539 0.14358746 0.27998903 -0.22847538 0.26980436 -0.5780839 -0.16985972 0.37523618 0.18452302 0.074756175 0.57633305 0.19787712 -0.13927056 0.60003966 -0.10556176 -0.320027 0.16342796 -0.47516936 0.3645573 -0.22133365 0.21030906 -0.31581405 0.06617483 0.20842284 -0.10362555 0.2753388 -0.24313265 0.15058506
81 0.18611549 0.021239176 0.41422376 0.493708 0.13207199 0.38742483 0.020141248 -0.123365305 -0.47342402 -0.16698061 -0.33974507 -0.1433377 0.014775916 -0.50854266 -0.12889569 -0.23079371 -0.019418176 -0.038035978 0.0018006648 -0.016729921 0.09991101 -0.2775237 0.01662295 -0.014151117 -0.049592223 0.46432555 -0.005301699 -1.0405747 -0.41537058 -0.21242507 -0.6356598 -0.10909826 0.29735503 0.014127108 0.053398833 -0.19623221 0.04742349 0.25594673 0.8217673 -0.27473858 0.09717139 -0.5255259 0.14154235 0.5145925 0.04524795 0.21596903 0.38590822 0.0469724 0.08121863 0.4921284 -0.49161077 -0.38578072 -0.020524373 -0.65431815 0.091973245 -0.15280569 0.3739313 -0.35872704 -0.1271205 -0.23430458 -0.04132741 0.15231425 -0.06765998 0.24134769
25 -0.20165537 -0.19126466 -0.17428067 -0.23440829 0.27112734 0.297173 0.09327586 0.5718288 -0.21639352 0.34563023 -0.46193984 -0.13909669 0.3344537 0.068565406 0.21040815 0.00049308426 0.06977476 -0.15433437 0.14823593 0.22904174 0.36582842 -0.051097192 -0.44118458 -0.4763759 0.6044199 -0.014997225 -0.5006652 -0.5379284 0.25136313 -0.22324555 0.40055346 0.11641009 0.2542165 -0.12970304 0.061131865 -0.49245885 0.33284143 -0.18051419 0.64111996 0.68162453 0.047358193 -0.3259052 -0.14984563 -0.12563083 0.05687893 -0.09761085 -0.4094386 -0.028016035 0.41780183 0.08363882 0.08460941 -0.014253125 -0.31618515 -0.23153815 0.030886322 0.17799191 0.46316263 -0.3846376 -0.53454846 0.21443032 0.35597777 0.5228823 0.15767281 0.23340163
98 0.10598008 -0.3342565 0.23754074 0.20176531 0.43033975 0.6675925 -0.25652528 0.072743565 -0.31214803 0.4312344 -0.028581131 0.23746489 0.030738588 -0.5625662 0.25656524 0.14332294 0.07113749 0.035343435 0.048900694 0.15125342 -0.060569003 -0.1408038 0.12954977 0.07960633 -0.19663016 0.050810296 0.045192882 0.14031789 0.05242635 -0.049271055 0.002791834 -0.10073772 0.16925588 0.15148543 -0.038815796 -0.011073438 -0.22775686 0.15432292 0.040812287 0.2150964 0.26022854 -0.15274525 -0.09446336 -0.42090428 -0.074778706 -0.617767 -0.190598 -0.19390656 0.020101927 0.3444184 0.4417026 -0.3533254 -0.10574531 -0.40634024 0.38241747 -0.22198114 0.25232077 -0.32890707 -0.39952385 0.21749407 -0.34084967 0.12316623 -0.18735923 0.3534586
3 0.019485494 0.14350326 0.13389213 0.14338574 0.08534807 0.14175233 0.12441752 -0.45786095 -0.29204515 -0.16172247 -0.16249174 -0.17037281 0.13123718 -0.05284061 -0.420266 -0.10273876 -0.30979145 0.3334419 -0.060333487 0.6172399 -0.1325434 -0.045427687 0.31848305 0.14889146 0.61592394 0.57451373 0.1110599 -0.4300674 -0.067431636 0.24057671 -0.14979982 0.065986946 0.19060254 0.045002043 0.39579278 -0.27513587 -0.25239143 -0.19797692 -0.12397869 0.022798862 -0.024687465 0.015324992 -0.08241405 0.107696846 -0.5399341 -0.11983017 0.13965128 -0.1954191 0.24234812 0.2177055 -0.2892132 0.025423033 0.028912384 -0.42067662 0.6091347 0.12127208 0.2330888 -0.50937504 -0.35241687 0.0943302 -0.2778716 -0.10605185 0.043058354 0.41465086
82 0.19597936 0.105634905 0.55969656 0.5550283 0.010232074 0.27438274 0.074686356 -0.24874935 -0.5307879 -0.038990673 -0.43031383 -0.16570263 -0.00042820434 -0.38578063 -0.2762247 -0.35534394 0.04350035 -0.07575082 0.028560087 0.055013116 0.05120411 -0.22168803 -0.04811194 -0.0111987125 -0.12852436 0.36939698 -0.052295905 -0.8593134 -0.4201139 -0.0671708 -0.64531535 -0.07949758 0.28756413 -0.15685482 0.023887498 -0.27252758 -0.032786194 0.22977008 0.6871382 -0.28321388 0.13569176 -0.38749793 0.06200822 0.54505223 0.09032769 0.18822517 0.3904989 -0.052556813 0.019418737 0.4908855 -0.6061588 -0.54554754 -0.023037814 -0.57328725 0.10676224 -0.052027196 0.28095376 -0.34458354 -0.17229791 -0.32394022 0.08936349 0.2050279 -0.13949496 0.23111406
104 -0.08815919 0.6895341 0.20088102 -0.6516109 -0.038784906 0.30352998 0.3083124 -0.31352118 -0.29505277 0.13896257 -0.18223257 -0.03218257 -0.36987886 0.6413086 -0.31407663 -0.119194694 0.43032694 0.16194037 -0.10428537 0.4972602 -0.64554363 -0.34697142 -0.27398667 0.26880416 0.17454374 -0.16196309 -0.06744875 -0.15676941 0.5325637 -0.14167717 0.1818762 -0.5320764 0.23399548 0.22605696 0.6973175 -0.74253243 0.46032858 0.113877535 0.2921303 0.28312764 -0.24938509 -0.10682949 0.15749261 0.54237944 -0.07316194 -0.05833873 0.4856208 -0.4329652 -0.062132377 0.13168775 0.21856262 -0.83030427 -0.42567894 0.061161716 0.23539485 0.2749521 0.35156217 0.2253276 -0.32386446 0.5233276 -0.17130637 0.2942286 -0.03434402 0.30752534
99 0.43607885 0.008470577 0.3447631 -0.2277019 0.3617971 0.51615185 -0.18862905 0.26909992 -0.38618118 0.17534482 0.019182462 0.2544783 -0.07216053 -0.5679569 0.46664396 0.20574285 0.042775396 0.07683934 0.11485545 0.2882558 -0.14361428 0.059745118 0.34423825 0.21425173 -0.0058239354 0.028620122 0.030134808 -0.06623095 0.1968157 -0.15231447 0.011984264 -0.075004496 0.23953383 0.4737304 -0.19072205 -0.13799714 0.06332738 -0.12997292 0.065890215 0.35159022 0.22926994 0.023757506 -0.002774419 -0.40984064 0.06894013 -0.48858878 -0.13109027 -0.21595216 0.17544793 0.111941904 0.5521516 -0.4227148 0.0031608625 -0.5514092 0.3078827 -0.24797778 0.1910449 -0.56996506 -0.41269168 0.23082902 -0.44919756 0.3920297 -0.31086683 0.58322483
107 0.27448735 0.4759852 -0.32124388 -0.5096713 0.30443355 0.16863663 0.40687394 -0.22467391 -0.2891603 0.51260614 0.21653034 0.005757131 0.44220418 0.45515695 0.25520965 -0.34093097 0.15062012 0.17823789 0.33643842 0.3384346 0.2600916 0.011806471 -0.24674787 0.12978902 0.23526168 0.060999848 0.080226466 -0.08114022 0.14329603 -0.20986916 -0.55999744 -0.04519434 0.21736236 0.23864155 0.07112084 -0.3497885 -0.09475363 0.47975388 -0.2168107 0.02850743 -0.04599495 -0.11533911 -0.21384025 0.8043389 0.2300677 -0.54601467 -0.07980125 0.2427777 0.2330885 -0.02313866 0.11236129 -0.26844615 -0.20196585 0.25441068 0.13957168 0.25699502 0.3853861 -0.35899583 -0.44084084 -0.29992643 -0.2497013 0.15607786 0.023218255 0.1542461
12 0.25073835 0.5699694 -0.24100861 -0.06350948 0.34586886 0.5024021 0.3635344 -0.30455163 -0.34037438 0.3461134 0.016058741 0.04591706 -0.116102815 0.015200228 0.29330307 -0.22905757 -0.13978423 -0.0930556 0.40823248 -0.47268227 -0.1670031 0.19931118 -0.5909645 -0.36433843 -0.08746577 0.05533796 -0.282784 -0.25851786 0.23034965 -0.29967278 -0.18342759 0.44878924 0.10916583 -0.1242285 0.12754673 0.10109925 -0.24377583 0.42824692 0.010507835 0.26365796 0.13926299 -0.26610014 -0.35743573 0.8027847 -0.31811607 -0.92040575 -0.015206819 0.08463774 -0.22464591 0.4785712 0.43042678 -0.51366043 -0.18556859 0.41961858 0.2137621 0.20632857 0.6983748 -0.979466 -0.038184132 0.011354764 -0.29046938 -0.09468747 -0.17046 -0.10568441
80 0.31511924 0.17773497 0.4227359 0.32388023 -0.060793117 0.50973034 0.1873994 -0.17964825 -0.6779271 -0.36288303 -0.37054884 -0.2642588 -0.06861487 0.08978613 -0.045628477 -0.4358331 -0.11577072 -0.2822168 -0.11882041 -0.098221056 -0.113538645 -0.023836888 0.16709653 -0.16039607 -0.1606821 0.40391275 -0.2784223 -1.0583861 -0.41366184 -0.17481096 -0.73076046 -0.14092526 0.38933972 -0.13193339 0.031229736 -0.13037382 -0.14008753 0.15150449 0.7206246 -0.28770494 0.14959489 -0.44143733 -0.04887334 0.46949923 0.3160032 0.23619923 0.5187975 0.29246792 0.03883016 0.57386756 -0.54119855 -0.34011984 0.17259799 -0.6910595 0.43456313 -0.30114657 0.42702416 -0.049564835 -0.09744115 0.044188626 0.007469027 0.49447897 -0.2572147 0.24235737
16 0.0028900693 0.054593626 -0.10096062 0.28166687 0.12347255 0.50090814 0.5091522 -0.48872933 -0.2780461 -0.08920292 0.027982574 0.0044309613 0.29582426 0.21817721 -0.68431026 -0.044168953 -0.18986012 0.104272455 -0.20846757 0.70717025 -0.07908188 -0.06855891 0.010241498 0.11408184 0.45916408 0.64672124 0.09504671 -0.36178574 -0.37723342 0.07450931 -0.16930062 0.11349373 0.17747205 0.2203485 0.5329742 -0.20747766 -0.33132958 -0.12072071 -0.12922502 0.1860717 0.15901259 -0.14356057 -0.13432339 0.112846486 -0.68807924 0.0043930593 0.007100149 -0.07596491 0.20382954 0.34663925 -0.4248918 0.028571544 -0.108430825 -0.14442599 0.52441144 -0.12422596 0.24178743 -0.046602875 -0.29977018 0.2525722 -0.25436994 -0.048495963 0.030781196 0.36019742
15 -0.39992625 -0.16251235 -0.080439955 -0.4431323 0.5267528 0.6153052 0.20133623 0.5736464 -0.17772955 0.52439374 -0.34841755 -0.2826524 0.31696326 0.028139526 0.2690482 -0.013227087 0.14095291 -0.18697967 -0.18512267 -0.08991857 0.13234092 -0.020699428 -0.22713186 -0.52393323 0.4819174 -0.03998601 -0.7650057 -0.275492 0.2991836 0.060610414 0.29419798 -0.114254795 0.43774065 -0.60283047 -0.07355033 -0.89810187 0.2382001 -0.10442263 0.71115005 0.5312537 -0.18698712 -0.5290645 -0.30746308 -0.24776648 0.16968776 -0.33213976 -0.3419445 0.2110278 0.34737012 -0.07060265 0.18227607 -0.16124491 -0.37664187 -0.563595 0.13577598 -0.0057734572 0.7089095 -0.15844241 -0.58705205 -0.023526322 0.4562883 0.45735034 0.33329713 0.33109516
8 0.14554833 0.13295148 0.2783157 -0.12767087 -0.02108131 0.39501435 0.23823248 -0.20171024 0.116191655 0.2750698 0.0072409958 -0.06172449 -0.1511921 0.24957448 0.4180199 0.048559982 0.22884555 -0.19559368 -0.2576686 0.13180456 -0.36755872 -0.10369348 -0.20586067 0.114848144 -0.07557878 0.03979433 -0.29372627 -0.4491992 0.59844196 -0.51874655 -0.29366803 -0.05954149 -0.003906329 0.006827945 0.5184285 -0.015120026 0.077273585 0.29417664 -0.12789817 0.22155826 0.035060294 0.010275593 0.44392368 0.6107081 -0.16042702 0.29913914 0.301589 -0.26328537 0.024620604 0.47065717 0.21406333 -0.7111315 -0.093526356 0.27219748 -0.0510504 0.32639402 0.7066219 -0.07502441 -0.024771985 0.43564373 -0.2999395 0.13085106 -0.10484488 0.21614423
